biennials -0.14307 0.10847 -0.032377 0.091573 -0.029721 0.11704 -0.15579 0.24033 -0.085831 -0.039297 0.025851 -0.014047 0.016754 0.0091426 -0.20261 -0.031946 -0.12119 0.081614 0.0080966 0.15618 -0.3269 0.17114 -0.17094 -0.19134 0.17856 -0.22448 0.2271 -0.10867 0.025868 0.19715 0.2117 -0.22244 0.056319 -0.097754 0.14187 0.085534 -0.038548 0.23494 0.13518 -0.1268 -0.13909 0.27896 0.0025857 -0.17491 -0.063471 0.027577 0.13556 -0.0094128
verplank 0.061966 0.013867 0.097894 0.069291 0.025128 -0.029515 -0.0068756 -0.21864 -0.025601 -0.047496 -0.091767 0.081062 0.11705 0.025643 -0.051421 -0.074378 0.012586 -0.026915 0.19103 -0.15763 0.051448 0.13455 -0.040023 0.2077 0.017204 0.22573 0.083228 -0.0079535 -0.11535 0.17306 0.014453 -0.19401 -0.1076 -0.16378 0.25349 -0.18004 -0.044328 -0.16348 -0.091957 -0.36885 -0.01324 0.0078103 -0.00681 -0.021193 -0.11642 0.23982 -0.23426 0.43564
clottes -0.0089251 -0.061586 0.1221 0.035306 -0.061313 -0.04685 0.11966 0.084184 0.057614 0.16206 0.10281 -0.22645 -0.015185 0.050584 -0.04209 -0.026132 0.011169 0.23204 0.076184 0.069735 -0.11726 0.050913 -0.087998 0.15215 0.082915 -0.055324 -0.10663 -0.084158 -0.059272 0.37413 0.25528 -0.12261 -0.2272 -0.028977 0.021512 0.073214 -0.30931 0.29448 0.066778 -0.092153 -0.14165 0.11589 -0.11014 0.040938 -0.33708 -0.030592 0.22528 0.16051
nunnery 0.277 0.019486 -0.23815 -0.10068 -0.17544 -0.2148 -0.1853 -0.010177 -0.019739 -0.03499 -0.0099115 -0.099382 -0.11386 0.090788 0.21348 0.19557 -0.03373 0.17034 -0.21515 -0.044315 0.014785 -0.211 0.036734 0.12371 -0.30186 0.22997 -0.23255 0.0052285 0.029958 0.079806 -0.02739 -0.076451 0.053968 -0.1083 -0.067588 0.026335 -0.13879 0.027829 -0.026704 0.29506 0.018326 0.14407 -0.26815 -0.13034 -0.015692 0.18495 -0.045091 -0.04577
clottey 0.13007 -0.091402 0.0037005 0.014496 -0.067745 -0.032454 0.31061 0.08075 0.031257 0.13992 -0.099519 -0.072196 0.15347 -0.10603 -0.1111 0.014984 0.0068156 -0.096376 0.020761 -0.12781 -0.041597 0.28228 0.041162 0.075579 0.041916 0.28711 0.024134 0.34505 -0.071057 0.21699 0.021115 -0.029354 -0.054196 0.013538 0.17918 -0.092146 -0.099105 -0.045168 -0.16692 -0.40238 -0.27625 0.028427 0.050746 -0.021625 -0.12425 -0.18158 0.058694 0.18238
sowell 0.030762 -0.091813 0.021076 0.12843 0.0179 -0.077895 0.026529 -0.062911 0.063693 -0.020966 -0.014219 0.014767 0.13628 0.1027 -0.04707 0.10664 -0.039 -0.048278 -0.16216 0.010273 -0.03461 -0.042256 -0.15101 -0.16981 0.094874 0.21788 0.019252 0.084203 0.12758 -0.11146 -0.069592 0.019972 -0.12341 -0.24046 -0.26306 -0.24068 0.23155 0.2028 -0.010772 0.21385 -0.29686 -0.25456 0.23879 -0.15923 -0.13032 0.28009 0.23929 0.05916
woods 0.049942 0.042324 0.018938 0.064624 -0.064808 -0.086171 -0.075199 -0.19779 -0.055387 -0.23949 -0.0056237 0.1199 0.070734 0.091679 -0.18294 -0.11322 0.032094 -0.072929 0.066702 -0.070065 0.015355 0.030946 -0.26707 0.027615 -0.060169 0.22764 0.11389 0.030353 -0.062781 0.084065 -0.012644 -0.075017 -0.03808 -0.20063 0.068258 -0.025851 0.044887 -0.058646 -0.10062 -0.33411 -0.25018 -0.099802 0.13244 0.012939 -0.13918 0.24713 -0.39212 0.35557
clotted -0.15325 0.17469 -0.14858 0.16705 -0.061657 0.38397 0.015206 0.11725 0.096851 -0.10926 0.20226 0.12276 -0.084128 -0.10981 0.11 -0.11522 -0.23358 -0.17534 0.23471 0.1212 -0.14923 0.15468 0.12293 0.15476 0.0097238 0.065649 -0.28607 -0.070528 0.041749 -0.075993 0.11935 -0.014533 -0.22663 -0.067245 0.060851 -0.043102 -0.025318 0.24947 0.091302 0.035894 -0.056044 -0.1219 0.2178 0.096062 0.03495 -0.060335 -0.066316 -0.1939
spiders -0.098084 0.17303 -0.1513 0.23683 0.046248 -0.090944 -0.068375 0.074935 -0.026971 -0.2084 0.052636 -0.027759 0.23191 0.15999 -0.38536 0.05138 0.32286 -0.024479 0.082912 -0.2383 0.14478 0.070837 -0.16746 -0.13519 -0.078819 0.043042 0.11614 0.052073 0.11514 -0.023325 0.25228 0.015687 0.054137 -0.1127 -0.18158 0.01556 -0.020509 -0.2665 0.18425 0.03688 0.040863 0.10596 0.011119 0.012524 0.20098 -0.093732 -0.067517 0.13145
mdbs -0.16749 0.076818 -0.0078256 -0.23028 0.10919 -0.0029132 0.10671 0.022756 -0.0051267 -0.086064 -0.27925 0.057727 -0.079849 -0.0799 -0.061325 0.043617 -0.20629 -0.21419 -0.13687 -0.24101 -0.090371 0.081844 0.13152 0.14611 -0.18709 -0.30011 -0.080421 -0.11626 -0.048492 0.022221 0.22303 0.060831 0.004612 -0.092795 0.056692 0.075079 0.12904 -0.02208 -0.088094 0.23042 -0.1211 0.25484 0.095224 -0.27334 0.15141 0.2108 -0.074673 -0.17334
woody 0.074173 0.095272 0.23204 0.22238 -0.1127 0.050493 -0.072478 -0.20817 0.028423 -0.24974 0.051199 -0.1613 0.1523 -0.12343 -0.14021 -0.33997 0.065371 -0.26365 -0.049444 0.0078165 -0.080179 0.0062086 0.14492 0.20798 -0.059054 -0.087818 0.21364 -0.011823 -0.095482 0.067753 0.054682 -0.020751 0.12189 -0.054675 0.058542 0.12678 0.03225 0.014956 0.029517 0.16677 -0.18594 0.13909 0.12453 -0.014354 0.28905 -0.054389 -0.033448 -0.32729
trawling -0.15497 0.070856 -0.045579 -0.078623 -0.11707 0.065944 -0.12254 0.028551 0.058026 0.17032 0.11306 0.045704 0.43851 0.32335 -0.22009 0.08631 0.043645 -0.13662 -0.16438 0.18067 -0.056051 0.21077 0.043664 -0.080761 -0.072637 -0.2099 -0.065418 -0.18384 -0.013763 0.0042073 -0.013806 -0.17154 0.080334 0.061298 0.066091 -0.14255 -0.060051 -0.085246 -0.08799 -0.14657 0.11848 -0.24188 -0.026558 -0.14094 -0.24472 0.057203 -0.20019 -0.06346
fituri 0.14988 -0.13375 -0.017947 -0.040029 0.3168 0.20035 -0.04287 0.012529 -0.097483 0.0070484 0.33631 0.033506 -0.052616 0.16895 -0.25424 -0.0091043 -0.19977 0.1731 -0.21738 -0.24281 -0.11569 -0.11576 -0.051697 -0.066394 -0.0035363 -0.053353 0.10851 0.073445 0.21484 0.037207 0.041466 0.1853 -0.0014511 0.090425 -0.064828 0.14039 0.037936 -0.17896 0.038494 -0.29661 -0.072693 0.28657 0.11186 -0.064926 -0.029097 0.09138 -0.088151 -0.075654
comically -0.1639 -0.11731 0.11138 0.18366 -0.25902 0.029368 0.016184 0.020643 -0.15224 0.086778 0.046266 0.16565 0.033236 -0.061951 -0.15568 -0.025749 0.10212 -0.069438 -0.17739 -0.062866 -0.22954 -0.14402 0.060761 0.21152 0.14493 -0.043646 0.13301 -0.0065864 0.088345 -0.055306 0.080499 0.08482 0.088583 -0.21761 -0.10787 0.23895 -0.0228 0.11292 -0.20758 0.25772 -0.062109 -0.046482 -0.020509 0.20461 0.23391 -0.26252 -0.23794 -0.20369
kalmar 0.066073 -0.0010852 0.089337 -0.18447 -0.1059 -0.045479 0.087934 0.102 -0.025536 0.19359 0.12399 -0.055465 0.1042 0.055298 0.25605 -0.078638 0.12216 -0.076571 0.1151 -0.19184 -0.25139 0.12504 0.17582 0.078004 0.24221 -0.20366 0.30912 -0.14566 0.099295 -0.058677 -0.025518 -0.085374 -0.1704 -0.29709 -0.09082 0.062588 -0.036982 0.13257 0.049487 0.24748 -0.059847 0.088575 -0.12423 0.020766 -0.02054 0.085621 0.19103 0.2674
spidery -0.1524 0.022183 0.010931 0.080717 -0.11525 -0.00070761 -0.044002 -0.0037966 -0.16523 0.011685 0.1052 -0.11041 -0.010567 0.091219 -0.24587 -0.036041 0.094746 -0.21104 0.09231 -0.044535 0.23158 0.091776 0.08267 0.13969 0.27273 -0.16 -0.22747 0.14818 0.28894 -0.049654 0.13678 0.020349 -0.21444 -0.079149 0.0074222 0.3048 0.030124 0.17849 0.038417 0.015931 -0.18664 -0.065476 -0.028068 0.38958 0.14584 -0.0052612 -0.064608 -0.074166
frou-frou -0.15076 0.025668 0.01396 0.10253 -0.1155 0.21153 -0.047631 0.11364 0.10178 0.082572 -0.0022986 0.03635 -0.049093 -0.039759 -0.027995 0.062261 0.039185 -0.052931 -0.080483 0.13687 -0.10935 -0.17598 -0.37562 0.016628 0.32703 -0.023499 -0.10184 0.075771 0.15401 0.1958 0.05136 -0.069733 0.023036 0.15309 -0.12728 0.36622 -0.03652 -0.14492 -0.28357 0.087456 0.066599 0.015564 -0.055111 0.21475 -0.28398 -0.0043835 -0.05319 0.19095
canes -0.13018 0.099685 -0.15604 0.23307 -0.082612 0.20959 -0.13402 -0.038267 0.14321 -0.0051145 -0.028166 -0.083217 -0.15577 -0.02563 -0.062196 0.17297 0.10022 -0.20137 0.106 -0.22552 -0.046111 0.27712 -0.16918 0.13877 0.15964 0.22772 -0.10512 0.055665 0.25804 0.30058 0.12192 -0.18944 -0.080481 0.018684 -0.043928 -0.084728 0.11361 -0.045758 0.086129 -0.17553 -0.12181 -0.068173 -0.09901 0.10187 -0.019278 -0.22847 -0.17209 -0.087318
canet 0.19172 0.053969 0.19491 0.1619 -0.11293 -0.065102 0.11031 -0.13757 0.043323 -0.10433 -0.084636 -0.090185 -0.051281 -0.20882 -0.10624 -0.12715 0.13652 -0.23386 -0.23314 0.096907 0.030161 -0.048913 0.027058 -0.081956 0.021053 0.086269 -0.14842 0.18209 0.056345 -0.17701 0.23972 0.10218 0.3104 -0.060718 0.15106 0.092957 -0.081415 0.26625 0.00029854 0.037674 -0.069832 0.19395 -0.17566 -0.2186 0.084985 -0.090673 0.17012 -0.23882
sprague 0.30184 0.0057082 0.12669 0.069562 0.01108 -0.011963 -0.047972 -0.41984 -0.077536 -0.13463 0.02359 0.010368 0.089033 -0.32177 0.035254 0.1872 0.083393 0.11532 -0.016219 -0.023871 -0.020029 -0.1565 0.062437 -0.019959 -0.092145 0.19722 -0.024791 -0.12049 -0.015513 0.028642 0.0091519 -0.061313 -0.12969 -0.11652 0.018035 -0.079196 -0.028397 -0.098828 0.1694 0.044417 0.43894 -0.1193 -0.31907 0.05846 -0.011404 0.020592 0.15535 -0.061901
caney 0.19118 0.1139 0.21373 0.095757 -0.081679 -0.10822 -0.063693 -0.28735 0.077202 -0.18438 -0.060198 -0.037435 0.048661 -0.018741 0.35168 -0.13054 0.12277 -0.15045 -0.027814 0.16574 0.14432 -0.007766 -0.037992 0.12499 0.077314 0.13575 -0.10315 0.04942 0.071768 -0.09053 -0.15069 -0.24801 0.082637 -0.15731 0.15707 -0.18885 -0.14997 -0.072729 0.25679 0.053279 -0.16594 -0.14657 0.11282 0.10681 0.051145 -0.0049065 -0.16583 0.26735
jairam 0.14149 -0.047032 -0.18072 -0.19076 0.14062 0.0177 0.18394 0.18392 -0.19863 -0.12854 0.052916 0.064286 -0.066316 0.23427 -0.027697 0.18134 0.14315 -0.011472 -0.22077 0.0083847 -0.17092 -0.10941 0.25475 0.054474 -0.067709 -0.050098 -0.095862 0.13244 -0.031418 0.11612 0.19621 -0.11448 -0.027731 0.083583 -0.048958 0.15912 0.20891 -0.17001 -0.0073326 0.21489 0.14986 -0.13222 0.083055 -0.31848 -0.040394 0.19472 -0.2113 0.0058925
nonfactor -0.1867 -0.003404 0.03891 0.11648 -0.083165 0.031612 -0.0024648 -0.078258 -0.016226 -0.14065 -0.014837 -0.02492 0.083253 0.13083 -0.090912 0.17601 -0.088007 -0.098126 0.18909 -0.057342 -0.10988 0.067884 0.11878 0.19782 0.09486 0.28482 -0.055439 -0.029832 -0.31382 -0.17526 -0.034567 -0.089437 0.12638 -0.053152 0.046566 0.048365 0.28478 0.14297 -0.2613 -0.051113 0.26769 0.058404 -0.27583 0.028013 -0.23709 -0.2733 0.023508 -0.11781
knoyle 0.16174 0.14656 0.13826 0.08664 0.011149 -0.080204 -0.10657 -0.31637 -0.04692 -0.13521 -0.08904 -0.040102 0.18558 -0.15308 0.18932 0.017083 -0.14889 -0.02342 0.19845 0.045055 0.0079527 0.21205 -0.0092051 0.044477 -0.079375 -0.045848 0.062473 -0.094564 -0.063873 0.068973 -0.085661 -0.10291 -0.10031 0.13232 -0.18554 -0.070621 7.991e-05 -0.13755 -0.10706 -0.2202 0.064302 -0.15216 0.07479 0.35018 0.038775 -0.076973 0.40304 0.23074
wrong-footed -0.1334 -0.16047 0.053156 0.051567 -0.037939 0.023607 0.24673 0.044614 -0.037955 0.098699 0.0055841 -0.05664 0.11739 -0.0058227 -0.030422 0.031481 -0.13671 0.12369 -0.048126 -0.1193 -0.081035 0.2251 -0.10612 0.19613 -0.018648 -0.045217 -0.032969 0.0060591 0.089269 0.0021553 0.17383 -0.10212 0.22921 -0.16227 0.15938 0.03748 0.030622 -0.21162 -0.067303 -0.09427 -0.072038 0.1887 0.34406 0.39073 -0.24093 -0.1688 0.16444 -0.2368
caned -0.042298 -0.17676 -0.02732 0.073949 -0.086817 0.026484 -0.054208 0.020115 0.23125 0.011026 0.024989 -0.035661 -0.013663 0.10671 0.091496 0.17213 -0.192 0.1406 0.0063358 -0.17707 -0.011844 0.16136 0.17455 -0.15093 0.22511 0.16487 0.0947 0.084132 -0.016893 -0.10922 -0.18494 0.22323 -0.38841 0.036802 -0.01681 -0.026893 0.28342 -0.18228 -0.029664 0.12311 -0.17911 0.045731 -0.017918 -0.36703 -0.050466 -0.00063999 -0.13517 0.1169
less-contaminated -0.037508 0.20839 -0.19688 -0.038109 -0.010293 0.020594 0.17416 -0.17149 -0.066333 -0.11598 0.023453 -0.14918 0.17972 0.35483 0.26619 -0.075677 0.26402 0.018867 -0.30516 -0.17335 -0.11948 -0.16389 0.22551 0.012904 -0.11285 -0.16064 0.056287 0.02424 -0.10918 -0.045876 -0.061299 0.1466 -0.10607 0.067638 0.13924 -0.015636 -0.26806 0.040533 -0.087887 0.093672 0.014112 -0.14624 0.053635 0.10533 -0.059152 -0.039113 0.14978 0.15428
rickman 0.11499 0.013928 0.30916 0.143 -0.10505 -0.03213 -0.089606 -0.28522 -0.12859 -0.1226 -0.010941 -0.018835 0.11015 -0.23809 -0.036185 -0.046212 0.058582 -0.18303 -0.019339 -0.049272 -0.093714 0.055366 0.12455 0.11268 -0.034211 -0.051406 0.18053 0.066664 -0.044788 -0.067078 -0.071017 -0.048176 0.12619 0.054491 0.05633 0.066253 0.069241 0.20051 0.089352 0.091081 -0.16371 0.067028 -0.24632 0.0061216 0.38254 -0.22591 0.072068 -0.3847
ioannidis 0.018406 -0.043792 0.042652 0.11665 0.24544 -0.077537 -0.20167 0.0074275 -0.073819 0.1286 0.14889 0.1156 -0.030734 0.058443 0.051446 0.10218 -0.10702 0.19655 0.14752 -0.20101 -0.12609 0.10279 -0.17993 -0.11728 0.16615 -0.066239 0.15255 0.084133 0.21492 0.014333 -0.18052 0.16077 0.053011 0.068092 -0.13454 0.23608 0.0092897 0.032076 -0.00099749 -0.34718 0.12577 -0.033855 0.18248 0.12083 0.16343 -0.372 -0.10151 -0.071802
rumbustious -0.078446 -0.034313 0.075397 0.051299 -0.29526 0.061762 0.1018 0.087355 0.0063228 0.10096 0.064391 -0.027142 -0.10626 -0.12772 0.094752 0.08655 -0.011124 -0.10924 -0.27653 -0.073121 -0.071654 0.14011 0.30592 0.0054478 -0.23135 -0.1358 0.15583 0.08414 -0.32402 -0.15518 0.12413 0.17933 -0.062641 -0.059222 -0.22837 0.21316 0.077213 -0.17537 -0.2866 -0.0715 0.077834 0.012908 0.1507 0.14101 -0.18343 0.10311 0.024706 -0.035362
achoswyd 0.027794 0.11864 -0.016199 0.00098093 0.0097283 0.0067003 -0.023717 0.045973 -0.057554 0.055396 0.053375 -0.17071 -0.13425 -0.16661 0.12666 -0.016805 0.016198 0.044384 -0.070184 0.092334 0.26861 0.019045 0.022052 -0.20053 -0.065301 -0.056858 -0.14636 0.010624 -0.16629 0.12382 0.1448 0.43496 -0.13265 0.2398 -0.19494 0.047901 -0.01695 -0.005218 0.05716 -0.061346 0.051686 0.23143 0.22913 -0.21856 0.21616 0.12365 0.079164 0.35072
buy-branded 0.047355 0.065107 -0.11116 -0.17331 0.044029 0.13327 0.034774 -0.085336 0.045808 -0.10352 -0.10752 0.099841 -0.064339 0.011653 -0.085926 -0.20657 0.1158 0.23168 0.23188 0.30213 -0.01952 -0.21112 -0.030933 0.17659 0.19765 0.04452 0.042558 -0.076201 -0.090924 0.0086449 0.23385 -0.018118 -0.14406 -0.25304 0.039861 -0.061837 -0.014177 0.0028276 0.046137 -0.11328 0.19764 -0.17069 -0.44368 -0.22642 -0.066336 -0.081319 -0.017578 -0.0030513
signal-callers -0.21305 -0.030586 -0.020362 0.027731 -0.11452 -0.0098751 0.049829 0.052054 0.051754 -0.12592 0.091636 0.10387 0.026526 0.059425 -0.03041 0.13073 0.042546 -0.14726 0.043784 -0.1147 -0.0103 0.13041 0.11443 0.015677 0.26489 0.06771 0.30171 -0.14088 0.015368 -0.027822 0.1641 -0.28239 0.058517 0.087283 0.011637 0.042707 -0.055044 0.052652 -0.12001 -0.035167 -0.33187 0.43336 0.069565 -0.0095026 -0.25787 0.044711 0.31615 -0.077558
naturopathic 0.026646 0.043725 0.050553 0.022924 0.13159 -0.16809 -0.16895 -0.047086 0.077354 0.016242 0.11705 0.21802 -0.083907 0.022154 0.17182 0.38443 -0.11721 0.13084 0.063426 -0.21811 -0.084223 0.18666 -0.10373 -0.2159 0.12346 -0.1399 0.072885 0.17771 0.24792 0.027969 -0.22511 0.1607 -0.098035 0.24423 -0.10717 0.25135 -0.14212 -0.038924 0.00088209 -0.051228 -0.068643 -0.018237 0.19812 0.029573 0.062573 -0.18662 0.038066 0.14075
obscura -0.023863 0.07312 -0.046454 -0.0021176 -0.25188 0.052661 -0.26185 0.16997 -0.017575 0.32388 0.038894 -0.063884 -0.0080703 0.12615 -0.038627 -0.17135 -0.09012 -0.10742 0.17441 0.084531 0.056992 -0.013317 -0.26162 -0.17132 -0.16229 -0.099083 0.12572 -0.13464 0.19142 -0.040695 -0.14171 -0.1755 0.079775 -0.044179 -0.19651 -0.20127 -0.049936 -0.1582 -0.048527 0.10345 -0.049096 0.12138 -0.22083 -0.095565 -0.26749 -0.26524 0.0021094 -0.089044
d.j.s -0.054905 0.098223 0.030554 -0.015217 -0.07952 0.053184 -0.13721 -0.041201 -0.1054 0.074147 -0.10097 0.065733 -0.048832 0.030264 -0.11994 -0.095214 0.030473 -0.16782 0.10129 0.15994 0.0014219 0.25203 0.11692 0.038865 -0.1403 -0.26989 0.013245 -0.024517 -0.094151 -0.17346 0.13285 0.1561 -0.31599 0.02927 -0.28385 -0.024287 0.083806 -0.13833 -0.082808 -0.19225 0.31889 0.29929 0.055774 -0.25998 -0.22364 0.097769 -0.07791 0.035575
ispase -0.084527 0.1389 -0.083722 0.011522 0.042314 0.04671 -0.2311 0.076617 -0.18061 0.17394 -0.12654 0.10218 -0.05454 -0.069835 -0.016089 -0.15984 0.12289 0.051702 0.18076 0.11952 0.024934 0.077997 0.021224 -0.10379 -0.10812 0.34322 0.075707 0.38037 0.035254 -0.083649 0.1158 0.14766 0.0905 -0.2128 0.14535 0.15635 -0.010802 -0.1258 -0.16033 0.19212 -0.042824 0.14776 0.11881 0.076492 0.040645 -0.27623 0.26542 -0.067279
grenadiers -0.12145 -0.033627 -0.21866 0.099764 -0.20175 -0.12043 -0.10711 0.058476 0.22574 0.12591 -0.044729 0.074732 0.10369 -0.26149 -0.19838 -0.041416 -0.040884 -0.030516 0.13328 -0.24164 -0.21433 0.1479 0.031483 0.0009946 -0.18851 -0.31436 0.018531 0.1964 -0.16589 0.036246 0.05857 0.19877 0.089161 -0.058424 -0.19489 0.0085403 -0.10331 0.060987 -0.0085166 -0.062568 -0.33148 0.067846 -0.012175 -0.061267 -0.082164 -0.11923 -0.2336 0.085655
raouf 0.25265 -0.27597 -0.079114 0.0086572 0.34198 0.18433 -0.014714 -0.0048363 -0.2074 0.031119 0.23316 -0.11395 -0.14671 -0.077695 -0.10384 0.14609 -0.20611 0.25917 -0.18849 -0.020206 0.02484 -0.17432 -0.029694 -0.15481 -0.027654 0.0097013 0.10719 -0.041633 0.0076019 0.08541 0.17802 -0.14517 -0.28851 0.028444 0.06723 0.04007 -0.08925 -0.12431 0.10172 0.029681 -0.031665 0.079456 -0.0045371 -0.13136 -0.077018 -0.26457 -0.10419 -0.14019
pigment -0.18078 0.29116 -0.087441 0.2165 0.2522 0.08351 -0.047842 0.1493 -0.16173 -0.0042838 -0.013291 -0.42022 0.023569 0.091928 0.032545 -0.14443 0.16075 -0.14788 -0.1845 -0.087559 0.17402 0.091965 -0.17724 0.15397 0.11308 -0.20394 -0.081532 0.067178 0.13154 -0.037891 0.082525 0.0085207 -0.082247 0.031517 0.086065 0.0052081 -0.026904 0.1969 0.10634 0.096999 -0.20196 0.086687 -0.052634 0.29378 -0.0056118 0.035549 0.10241 0.00094947
ever-improving -0.040361 0.082454 0.16655 -0.13651 -0.005326 -0.012281 0.021413 0.093685 -0.04024 0.19909 -0.011 -0.10004 0.20241 -0.13771 0.052605 0.066104 0.032439 0.055123 -0.019368 -0.084016 -0.071652 0.38155 0.25404 -0.16395 0.098889 0.13962 -0.061795 0.0064642 -0.17491 0.10049 0.20907 -0.13828 -0.058334 -0.13033 -0.29426 -0.19119 -0.027739 0.012212 -0.10189 -0.27962 -0.22489 0.24859 0.082407 0.10515 -0.19826 -0.076383 0.13306 -0.030317
transvestism -0.27806 0.078296 0.011561 0.099077 -0.11409 0.056752 -0.33553 0.18321 0.042465 0.047432 -0.12004 0.10632 0.037015 0.011251 -0.042564 -0.075802 -0.075784 -0.090418 0.034354 0.11601 0.042915 -0.085939 -0.043119 0.02354 0.067476 -0.14075 0.045255 0.11378 -0.039949 -0.10465 0.13809 0.0091102 -0.001919 0.27422 -0.15616 -0.35127 -0.10443 -0.074345 0.23227 -0.12808 -0.073196 0.2227 0.038496 -0.040518 -0.33047 -0.31984 -0.095997 -0.074618
bringing -0.3141 -0.096248 -0.0011067 -0.28435 -0.15785 -0.026228 0.11154 -0.048603 0.10527 -0.27502 0.011775 -0.24638 0.048841 -0.14513 -0.13696 -0.1543 0.099953 0.058508 -0.053098 0.12106 -0.21261 0.22256 0.028712 -0.20077 -0.081471 0.06797 0.13209 0.013939 -0.18983 0.020933 0.0012412 -0.15976 -0.27561 0.072251 -0.089386 0.093963 0.14145 -0.1818 -0.0165 0.15462 -0.13002 -0.24221 0.055067 0.039874 -0.087576 -0.16636 0.0054704 -0.093663
seamier -0.16999 0.048905 0.0047348 0.011606 -0.2798 -0.094862 -0.074325 0.30472 -0.040366 0.23865 0.040431 -0.019369 0.055661 0.11933 -0.078099 -0.021397 -0.15875 -0.070133 0.10532 0.2 -0.093774 0.17956 -0.18181 -0.27404 0.1331 -0.24358 0.03144 0.081932 -0.15388 -0.14835 -0.055761 -0.018116 0.025417 -0.088905 0.17006 -0.11519 0.0626 -0.090279 0.036967 0.071721 -0.072205 0.019024 -0.14304 0.0020369 -0.20389 0.03656 0.064193 -0.43789
devonians 0.090003 -0.11914 -0.14451 0.034011 -0.00025533 0.11115 0.098602 0.020786 -0.098799 -0.082037 0.046143 0.022882 -0.024339 -0.074382 -0.16095 0.049818 0.041791 0.089033 -0.15898 -0.27425 -0.055284 -0.095192 -0.23016 0.18067 0.070167 0.36607 0.057862 -0.069678 -0.027064 -0.022783 -0.060976 -0.013175 0.18604 -0.18768 0.10533 0.01352 -0.25533 0.14015 -0.33954 -0.33492 -0.13757 0.10416 0.1416 0.095625 -0.18486 -0.043686 0.025602 0.17384
wooded -0.013602 0.13903 -0.29731 -0.056328 -0.22418 -0.21213 -0.085773 -0.13724 -0.04883 -0.18642 0.24287 -0.046917 0.1011 0.045701 -0.13791 0.35302 -0.13734 -0.081452 0.033617 0.14481 0.090682 -0.11559 -0.18229 0.0533 -0.16561 -0.031807 0.064048 -0.011657 -0.19535 0.072567 -0.025714 0.072538 0.11083 0.035979 -0.062346 -0.10995 0.21299 0.074571 0.054232 0.020651 -0.25845 -0.16843 0.305 0.0088516 0.030712 0.10812 -0.19077 0.069051
boorstein 0.12363 -0.011375 0.10078 -0.0116 0.041481 -0.010215 0.011607 -0.065518 -0.032934 0.0020942 0.16061 0.092741 0.037753 0.034704 0.14044 -0.10091 -0.10577 -0.0089566 -0.22047 0.14914 -0.045643 0.035881 0.060706 -0.029261 0.099401 -0.018863 0.011388 0.043759 0.29429 0.33614 0.057082 0.19558 0.056893 0.051264 0.30245 -0.066611 0.022162 -0.20608 0.087682 -0.18501 0.10726 -0.14407 -0.21954 -0.028069 -0.084111 0.10081 0.52082 0.01448
grueling -0.10761 -0.061337 -0.055506 -0.091779 -0.021302 -0.18499 0.12901 -0.024735 0.062001 -0.0031236 0.13334 0.032368 -0.15522 -0.00027009 -0.12163 -0.098627 0.0536 -0.13786 0.18114 -0.15241 -0.26741 0.059848 0.10542 -0.19858 0.12914 0.1526 0.1378 0.061936 0.0054854 -0.24223 0.099278 0.033163 -0.087924 0.021356 0.31807 -0.05345 -0.062611 -0.030283 -0.27168 -0.21516 -0.29892 -0.37648 -0.069792 -0.063099 -0.058983 -0.012488 -0.14017 0.11637
wooden -0.085307 0.075616 -0.09546 0.022787 -0.11015 0.11817 -0.096899 -0.12578 0.0050684 0.044585 0.045513 -0.25823 -0.15846 0.18232 -0.13555 0.080519 0.049189 -0.23209 0.018038 0.043485 -0.21032 0.081836 -0.32071 0.082234 0.16106 0.030255 -0.13385 -0.14222 0.017599 0.3006 0.096991 -0.017502 -0.16479 -0.27835 0.041398 -0.024183 0.1781 -0.041648 0.088574 -0.13641 0.084444 0.031767 0.23012 -0.24543 0.12751 -0.24554 -0.037085 0.14682
wholemeal -0.083511 0.17377 -0.14632 0.19753 0.08985 0.40837 0.012847 0.23786 0.22363 -0.33194 0.2035 0.10312 0.059141 -0.17041 0.12658 -0.15146 -0.26159 -0.0057178 0.11625 0.023608 -0.20517 0.093083 0.05414 -0.038989 0.012399 0.22165 -0.18939 -0.11021 0.072674 -0.12086 0.078609 -0.079105 0.13205 -0.037592 0.09691 0.068682 -0.018426 0.0739 0.16425 -0.035211 -0.10857 -0.067228 0.16269 -0.0031781 -0.058042 0.0069372 -0.047702 -0.065242
elgan 0.18289 0.089724 0.082183 0.049001 0.036806 -0.10767 0.03052 -0.095355 -0.034019 -0.072554 0.010546 -0.2186 0.0027477 -0.20957 0.096268 0.1146 0.032491 0.087003 -0.066903 0.17199 0.29811 -0.070008 -0.024573 -0.13915 -0.043089 0.045913 -0.025652 0.063932 -0.24996 0.21266 0.015087 0.22614 -0.12292 0.10085 -0.2528 -0.087386 0.017593 -0.003749 0.024556 -0.080294 0.012172 -0.10287 0.26531 -0.18728 -0.068997 0.057683 0.31946 0.3886
wednesday -0.046208 -0.14008 -0.076543 -0.22368 -0.0089346 -0.045649 0.074603 -0.074818 0.15121 0.036125 0.26741 0.067262 -0.064852 0.20828 0.23662 -0.30005 0.027465 -0.030616 -0.057266 -0.034226 0.10305 0.076178 -0.2085 -0.12615 -0.030751 0.054583 -0.015624 0.15017 -0.10791 -0.0013023 0.17137 0.16394 0.081903 -0.27172 -0.089664 0.0019061 0.005091 -0.011769 -0.074934 0.25553 -0.18856 -0.022348 0.029567 0.013554 -0.35889 0.02275 0.31624 0.11207
shchedrin 0.06332 -0.0053299 0.12623 -0.076973 -0.067997 0.014256 0.029804 0.058461 0.022323 0.13561 -0.0124 -0.10726 -0.012887 -0.052528 0.040983 -0.1334 -0.003867 0.057249 0.028829 -0.087127 -0.24078 0.07799 0.396 0.21648 -0.092267 -0.15865 0.24698 -0.20867 0.13269 -0.12406 0.017874 0.032664 -0.20387 -0.21225 -0.33351 -0.079821 -0.048167 0.30103 -0.15345 -0.015799 0.15974 -0.066192 0.16652 -0.20618 0.07639 -0.070388 -0.094705 0.13827
altagracia 0.22396 -0.051667 -0.16931 -0.16452 -0.2281 -0.080353 0.3498 0.46961 0.10659 0.19227 0.006269 -0.1164 0.040965 -0.048138 0.028938 0.11542 -0.00746 0.010562 -0.30735 -0.022178 0.1478 0.097703 0.017309 -0.025607 -0.1096 0.02926 -0.2192 0.09445 -0.088581 -0.052599 0.0065592 0.071074 0.084634 0.094829 -0.11904 0.005363 0.16073 0.14276 -0.004753 0.10764 -0.14777 -0.079682 0.079064 0.11461 -0.020045 -0.19779 0.060383 -0.1344
chameleons -0.13972 0.10769 -0.15302 0.20439 0.048015 -0.2013 -0.17108 0.094614 0.075851 -0.15312 0.066061 0.034375 0.2178 -0.045842 -0.4138 0.0071811 0.21924 -0.085789 0.029174 -0.14482 0.071356 0.12855 0.11719 -0.18274 0.012535 -0.010342 0.1554 0.23849 0.060412 0.083251 0.27749 0.16586 0.22071 -0.06492 -0.088295 0.030246 -0.070351 -0.19606 0.11954 0.22793 0.064702 0.13808 -0.063483 0.0020818 -0.075853 -0.0059928 0.093309 0.10793
tcbl 0.026225 0.12815 0.020004 -0.18408 0.092975 0.089421 -0.1005 0.035525 -0.12995 -0.066269 -0.1853 0.1805 -0.072426 -0.017339 -0.097004 -0.0036594 0.03516 0.13679 0.22449 0.18829 0.0053046 -0.037572 -0.16964 0.040031 -0.11533 -0.091119 -0.088115 0.054715 -0.055985 -0.18107 0.24849 0.02538 -0.15188 -0.40584 0.10914 -0.027954 0.11291 0.12455 -0.032404 -0.037285 0.18035 -0.21949 -0.3615 -0.054954 0.04079 -0.10434 0.015991 -0.30126
elgar 0.028225 0.043665 0.15272 -0.002247 -0.15496 -0.0087016 -0.091882 0.078437 0.056661 0.090471 0.037261 -0.18729 -0.026097 -0.042774 0.042119 -0.21239 -0.11872 0.009326 0.069556 -0.062933 -0.14242 0.0086704 0.32352 0.25287 -0.14191 -0.19157 0.23267 -0.11982 0.08481 0.013791 0.074913 -0.060151 -0.11353 -0.059464 -0.33806 -0.055285 -0.024465 0.33777 -0.22655 -0.038653 0.17012 -0.019592 0.15514 -0.14862 0.21638 -0.11674 -0.11789 0.18177
immunities -0.084864 -0.16403 -0.092654 -0.1328 0.1651 0.013526 0.019243 0.066213 0.27979 -0.039477 -0.12977 0.081439 0.11525 -0.060747 0.054446 0.082498 0.1733 -0.23882 0.047847 0.037553 -0.1232 -0.30642 0.0654 0.083113 0.021051 -0.30363 -0.068928 -0.033419 0.0080112 0.1909 -0.05921 0.074658 -0.096139 -0.32273 -0.0086807 0.028297 -0.17951 -0.19975 -0.075911 -0.0090563 -0.14426 0.27923 0.07207 -0.028343 0.28804 0.12801 0.030418 -0.15812
all-news 0.087743 -0.04645 -0.16463 -0.077725 0.0091945 0.031683 0.013897 0.050632 -0.047396 0.039643 0.0066512 0.104 0.023439 0.11387 0.055866 -0.15002 0.047792 0.082214 -0.083613 0.22 0.09292 -0.056986 0.24141 0.10674 -0.074407 -0.027688 -0.026401 -0.080642 -0.0014688 -0.039038 -0.10017 0.14751 0.1916 -0.35865 0.29161 0.31123 0.096994 -0.19 -0.095329 -0.012355 0.13529 -0.13464 0.019686 -0.13609 -0.32595 0.066712 0.37179 0.016502
bbqs -0.04934 0.062647 -0.10781 0.06589 -0.074976 0.19301 0.048419 -0.038634 0.053668 0.011125 0.093512 0.1103 -0.03823 -0.018126 -0.022237 0.07288 0.0088934 -0.2347 -0.1091 0.19339 -0.037169 0.001404 0.022243 -0.14746 -0.094723 0.31492 0.22057 -0.037937 -0.019523 -0.008452 -0.016484 -0.084648 -0.10537 0.16576 -0.13294 -0.11818 -0.031133 -0.26651 -0.22363 -0.11343 0.098177 0.08997 -0.046317 -0.1676 -0.0015208 -0.51656 0.25007 0.15105
fuera 0.12204 0.069984 0.022844 -0.027909 -0.14704 -0.079738 0.24643 0.39525 0.14879 0.35385 -0.036748 -0.14967 0.084008 -0.0747 0.067035 -0.090128 -0.15902 0.010502 -0.043208 -0.085521 0.14789 0.045102 0.039046 -0.075352 -0.25216 -0.1714 -0.1456 -0.055454 -0.13152 0.20116 0.1564 0.27094 0.10705 0.12651 0.061813 0.14871 0.01345 -0.017478 -0.060652 -0.034725 -0.12868 -0.16181 0.046129 0.03004 0.18434 -0.19939 0.025781 0.14185
gavan 0.24118 0.059871 0.17623 -0.035174 0.042087 -0.047593 0.024317 -0.13391 -0.090056 0.024367 0.053957 0.031007 0.11448 -0.0065184 -0.064013 0.087502 -0.11756 0.019847 -0.12148 0.033567 0.046617 0.036976 -0.17815 -0.11481 0.16566 -0.091292 -0.02905 0.029524 0.38975 0.1805 -0.27679 -0.095008 -0.00099128 -0.041021 0.11164 0.030853 -0.31419 -0.12911 0.1307 -0.049139 0.4688 -0.15907 -0.16507 0.061437 0.066033 -0.039914 0.16641 -0.0044393
gaskets -0.17353 0.12886 -0.10874 0.017993 0.18913 0.19508 -0.085147 -0.07284 -0.093914 0.10544 -0.17434 -0.1314 -0.014123 0.16227 0.1903 -0.11371 0.24876 -0.06476 -0.22321 0.030769 -0.074236 -0.13197 0.047028 0.17475 -0.018102 0.15708 -0.20645 -0.035148 -0.050217 -0.11956 0.14496 0.055349 -0.11938 0.15254 -0.10351 -0.28752 0.061737 -0.044281 -0.20718 -0.15531 -0.081998 0.27507 0.0028339 0.17991 0.21949 -0.20437 0.12188 0.077069
lossmaking -0.095803 0.1309 -0.0263 -0.20908 -0.095665 0.16733 0.054235 -0.048436 0.11375 0.078776 -0.33819 0.1302 -0.12423 -0.036171 -0.062503 -0.081728 -0.023557 0.35824 0.21452 0.095275 0.059485 -0.18698 -0.1587 0.21763 -0.055737 -0.031769 -0.1268 0.061724 -0.074507 -0.23199 0.404 0.1217 0.10629 -0.066196 -0.046775 -0.048608 -0.16578 -0.050943 0.081044 -0.043937 0.03296 -0.19451 -0.091311 -0.11248 -0.13628 -0.096982 -0.06736 0.037066
snuggles -0.1109 -0.036921 -0.047712 0.13791 -0.08623 -0.01891 0.13801 -0.12317 0.13907 -0.29583 0.16267 0.13272 -0.12652 0.1149 -0.071357 0.068248 0.24787 0.0068203 0.047758 0.060982 0.055835 -0.10167 0.19521 -0.18214 0.12559 -0.091342 -0.13992 0.13203 0.25167 0.14823 -0.1814 0.11719 0.093 0.16283 -0.17547 0.010058 0.25004 -0.077415 -0.020514 -0.058779 0.010391 -0.062855 -0.11766 -0.068714 0.07978 -0.31603 -0.2496 -0.24132
abdulwahab 0.16571 -0.26957 -0.20104 0.054725 0.29703 0.06771 -0.14799 -0.097167 -0.11384 0.023484 0.17139 -0.014661 -0.13289 -0.040308 -0.0053854 0.084514 -0.17771 0.22907 -0.2391 -0.13732 0.14387 0.012154 0.0016214 -0.15749 0.10189 0.028612 -0.0193 -0.13096 0.19796 -0.11526 0.11395 -0.061977 -0.20906 0.049355 0.091991 -0.20296 -0.024529 0.069164 -0.24138 0.15546 0.084801 0.13424 0.016012 -0.15759 -0.16896 -0.00059763 -0.30937 -0.028516
accountholders 0.0051402 -0.0066776 -0.015915 -0.079819 0.10789 0.17527 0.045747 -0.12632 0.064726 -0.085786 -0.31843 0.12996 -0.098107 0.22524 -0.238 0.0071737 -0.23874 -0.089634 -0.1915 -0.2388 0.17759 0.0071 -0.015616 0.19153 -0.094301 -0.25256 0.053846 -0.069292 0.21103 -0.15512 -0.14373 -0.088869 0.09296 0.10049 0.036487 -0.13008 -0.069827 0.044112 0.086007 -0.035033 0.036151 -0.14362 0.27503 0.10669 0.28927 0.18678 0.03147 -0.016803
consenting -0.19803 -0.1197 0.05456 0.011124 0.013162 -0.10615 -0.042962 0.060467 0.36577 -0.10817 -0.23305 -0.012267 0.1388 -0.07644 -0.042124 0.21684 0.20181 -0.24971 -0.087187 0.10592 0.086275 -0.19672 0.13591 -0.060599 0.12469 0.031366 0.082157 -0.038125 0.097814 -0.15123 0.32209 0.23011 -0.070812 -0.25237 0.069002 -0.15042 -0.10106 -0.055435 0.13997 0.094686 -0.10294 0.066792 0.024017 -0.11358 -0.20111 0.14265 -0.097018 0.10874
stohl 0.20061 -5.3318e-05 0.021471 -0.040158 0.27411 -0.016709 -0.081892 -0.028793 -0.19689 0.079626 0.14968 0.099955 0.15548 0.039474 0.014697 0.050256 -0.092734 0.12996 -0.073491 -0.23277 0.047533 0.043262 -0.095631 -0.26839 0.22868 -0.16629 -0.059782 -0.0073404 0.24595 0.22823 -0.17901 0.17699 0.15601 0.063834 -0.11127 0.14427 0.020195 -0.29471 0.061654 -0.24923 0.20591 -0.13741 0.10164 0.083238 0.16669 -0.095703 0.06102 0.069721
targa 0.0073162 0.075561 -0.043858 -0.16956 -0.12153 0.029995 -0.037701 0.22076 -0.001809 0.049647 -0.11096 -0.012165 -0.14483 0.067892 -0.0085667 -0.28055 0.16362 0.15692 0.17434 -0.019547 0.080675 -0.11366 -0.090348 -0.23938 -0.0084889 -0.04378 0.1097 0.2313 -0.10964 0.045064 0.27621 -0.070791 0.0019721 0.31508 0.17962 -0.10673 -0.11956 0.044517 0.022751 -0.021006 -0.28006 -0.004187 0.21449 -0.081972 0.35521 0.12812 0.07174 0.096993
snuggled -0.11555 0.020279 -0.040863 0.071967 -0.27824 -0.076052 -0.015028 0.057795 0.20824 -0.0030632 0.096028 -0.1083 -0.20642 0.12923 -0.16978 0.038278 0.1014 -0.19591 0.050992 -0.00048839 0.1674 0.0010895 0.0313 -0.1443 0.072666 -0.17287 -0.28589 -0.13587 0.0094165 0.022086 -0.008043 0.39652 0.20775 -0.064887 0.15741 -0.13528 0.24051 -0.11617 0.04767 -0.071956 -0.26269 0.21119 0.022017 0.15367 -0.052255 0.06404 0.17434 -0.014151
tumen 0.084828 0.037862 -0.38056 -0.26808 -0.101 -0.1883 -0.075356 0.011017 -0.087201 -0.037183 0.25911 0.20562 0.022904 0.028737 0.13587 -0.020472 0.006755 0.0082951 -0.042187 0.018669 0.16442 -0.24023 0.057497 0.12098 -0.020569 -0.096544 -0.094922 0.055167 0.064799 0.18831 -0.19692 0.052011 0.0002318 0.21695 0.042674 -0.037305 0.058503 0.17488 -0.042757 0.17984 -0.30918 -0.15049 -0.023656 -0.11867 0.075238 0.12398 -0.034683 -0.32116
self-reliant -0.10685 -0.090156 -0.14277 -0.14402 0.040948 -0.066793 -0.1185 0.056293 -0.053244 -0.37203 -0.098386 -0.042085 -0.039119 -0.13787 -0.12235 0.19758 0.13609 0.20004 -0.24444 -0.03092 -0.31399 0.014734 0.10917 0.20328 0.11322 0.0084526 -0.14086 -0.081216 0.11148 -0.084438 -0.019597 -0.046561 0.12907 0.060797 0.12729 -0.041172 0.058134 0.054804 -0.38778 0.23157 -0.081139 0.092611 0.22586 0.10676 0.054848 0.10047 -0.031522 0.12536
defenses -0.21632 -0.033545 -0.18077 -0.057826 0.076848 -0.098258 -0.13753 -0.27778 -0.071598 0.078582 -0.11084 0.026 0.18407 -0.30458 -0.0044607 -0.1134 0.038829 -0.10494 0.040792 -0.082698 -0.19084 0.028512 -0.074839 0.10697 -0.26718 -0.055641 -0.17908 0.0064532 -0.10563 0.0097397 -0.066723 0.0062935 0.1782 0.0091102 -0.12411 0.19941 -0.18112 0.081198 0.0025375 -0.21778 -0.37071 0.1827 0.026383 -0.057212 -0.060177 0.021774 0.090836 0.28642
opportunists -0.11374 -0.27882 -0.13447 0.18268 -0.014442 0.10873 -0.11423 -0.033337 -0.063475 0.02179 -0.21597 0.034882 0.17372 -0.13758 -0.055031 0.079196 0.13629 0.054577 -0.081842 -0.059562 0.17381 0.41228 -0.18137 0.13228 -0.082462 -0.056422 0.25205 -0.26254 -0.0022461 -0.022949 0.2458 -0.073844 -0.022383 0.19101 0.16262 -0.073607 -0.066187 0.15946 0.04323 -0.045918 0.22033 -0.2355 0.020463 0.071767 0.086958 0.053839 0.025811 0.079779
warmongering -0.0088333 -0.28422 -0.15237 0.21299 0.041305 0.027815 0.058987 0.070966 -0.12947 0.0081909 -0.2945 0.045957 0.24788 -0.0082658 0.019575 -0.11507 0.11615 -0.032267 0.24922 0.077811 -0.086033 0.023819 0.041359 0.027503 0.16154 -0.25891 -0.01557 -0.22487 0.082545 0.052337 -0.096916 0.011835 0.13424 0.0094545 -0.089549 0.2419 0.17284 -0.25089 -0.0069265 -0.1383 -0.18991 -0.069291 -0.0016024 0.090385 0.29024 -0.023786 -0.19786 0.18159
dayaneni 0.056656 -0.11176 -0.0022514 -0.10051 0.10287 0.067594 -0.026794 -0.063823 -0.12692 0.071619 0.22802 -0.12147 0.0023845 -0.060552 -0.057206 0.14346 -0.060398 0.2574 0.031692 0.024382 -0.17209 -0.1167 -0.12008 0.20492 -0.11323 -0.015063 0.019644 -0.18945 0.016841 0.063547 -0.33786 -0.16822 -0.021668 -0.016183 -0.27216 0.0086237 0.27808 0.2948 0.10016 0.21616 -0.033582 0.12638 -0.17904 -0.33949 -0.03406 0.083831 -0.031631 0.045111
bernardinis 0.29466 -0.078535 0.055938 -0.064078 0.085562 0.05765 0.29951 0.22604 -0.16059 0.12586 0.14054 0.043276 0.20184 0.017051 -0.0108 0.10425 0.027283 0.026005 -0.077363 -0.004709 -0.026946 -0.14909 -0.080336 -0.0924 -0.028279 0.0021862 -0.11907 0.0075218 -0.078196 0.063466 0.095697 -0.15378 -0.2775 -0.17531 -0.19216 0.18183 0.16384 -0.083272 0.18647 -0.023709 -0.10967 -0.20994 -0.022653 -0.24039 0.31029 0.077201 0.25586 0.027353
nallet 0.27815 0.069304 0.093774 -0.047729 -0.088804 0.02362 0.23294 0.1424 -0.081532 0.21059 -0.15701 -0.11242 0.13909 -0.11 0.062227 0.0083641 -0.032303 0.082093 0.1015 -0.050704 0.024263 0.22904 -0.045931 -0.057474 -0.13159 -0.057979 -0.082665 -0.21835 -0.14684 0.11131 0.15894 0.065944 -0.095201 -0.0091065 -0.11257 0.06661 -0.16303 -0.073064 -0.094233 -0.18893 -0.11028 -0.12676 0.15527 0.28194 0.36775 -0.057193 0.077896 0.32105
outfielders -0.03564 0.018123 0.11163 -0.0069146 0.029652 -0.012988 0.0037191 -0.097604 -0.0066898 -0.071766 -0.001601 0.030892 0.046952 -0.020464 -0.037135 0.12638 -0.04231 -0.16565 0.056739 -0.0069337 0.044387 0.24719 0.14384 0.10934 0.057683 0.15945 0.0010646 0.076469 -0.32332 -0.038159 0.16288 -0.20256 -0.12175 0.1339 0.0055851 -0.14059 0.24617 -0.018178 -0.0049704 -0.16973 -0.01353 0.39352 0.060562 0.21179 -0.37924 -0.08806 0.18557 -0.28445
numeral -0.12698 -0.038339 0.021667 0.06845 -0.05634 0.082425 -0.28079 0.1614 -0.026853 0.18757 -0.077645 -0.075704 0.0049394 0.16068 -0.031676 -0.079427 0.011089 -0.022755 0.1912 -0.29142 0.124 0.038426 0.03209 0.0081144 -0.10453 0.14849 -0.19726 0.056168 0.06605 0.0069698 -0.13031 -0.11096 0.299 -0.013753 0.030612 0.023095 -0.12691 0.23273 -0.088741 -0.13299 -0.33345 0.25491 -0.0085499 -0.014949 0.19416 -0.14163 -0.32039 -0.09481
pawed -0.18049 0.02122 -0.048623 0.12739 -0.072619 0.17386 -0.029066 -0.082682 0.28486 0.16216 0.063125 0.0083282 -0.062389 0.073206 -0.17932 0.14345 0.20811 -0.048703 -0.025628 -0.039323 -0.0035923 0.08958 -0.21962 0.0092528 0.20197 -0.0031762 -0.13777 0.10704 0.18716 0.31441 0.042856 0.22465 0.027437 0.07374 -0.014678 -0.16652 0.23273 0.013546 0.092006 0.034805 0.023958 -0.069816 0.011408 -0.20649 0.013857 -0.31686 -0.042899 -0.34821
isbin 0.02221 0.060979 0.12201 -0.036126 -0.015773 0.021045 -0.033325 0.043341 -0.052037 0.076469 -0.021765 -0.089801 -0.024595 -0.18359 0.10757 -0.051819 0.021748 -0.053909 -0.066275 0.051266 0.010643 0.15009 0.32824 0.23635 -0.092216 -0.067651 0.24027 -0.11084 0.12681 -0.11675 0.014543 0.011923 -0.1041 -0.11326 -0.44818 -0.058047 -0.14856 0.36513 -0.21917 -0.069948 0.20816 0.0074664 0.21313 -0.067963 0.063628 -0.084273 -0.04891 0.2393
zhitomirskiy 0.17723 -0.031356 0.11466 -0.037124 -0.02288 -0.057099 -0.022546 0.088864 0.10371 -0.14495 -0.043744 -0.23317 -0.10564 0.087974 0.032298 0.081038 -0.024679 0.295 -0.13257 0.14503 0.01124 0.093336 0.15911 -0.018427 0.1644 0.12229 -0.18315 -0.12258 0.20816 -0.23227 -0.060454 0.057189 0.060262 0.11324 0.18256 -0.0031374 -0.079037 0.28071 0.10848 0.21133 0.078846 -0.10622 -0.016103 -0.2585 -0.19546 0.32809 -0.12872 0.18052
regularize -0.16424 0.0062105 -0.076831 -0.2094 -0.06493 0.069174 0.15782 -0.028541 0.30828 -0.084288 -0.15678 -0.12151 0.26107 0.05985 -0.059242 -0.013185 0.19828 -0.12271 -0.046241 0.069196 -0.18363 -0.068929 0.22864 0.28231 0.016292 -0.28373 0.10629 -0.038776 0.29206 0.16975 -0.0018683 0.038789 0.15012 0.015998 0.055387 -0.092643 -0.19801 0.077984 -0.015791 0.0089803 -0.0267 -0.021351 0.18724 0.18263 0.1155 0.15882 -0.20555 0.014342
giolito 0.0023182 0.068009 0.15024 -0.037808 0.058507 0.22321 0.011627 0.11167 -0.24593 0.061421 0.049807 -0.2072 0.029205 -0.20002 0.024726 0.18413 0.0030178 0.26235 -0.016889 -0.12138 -0.30144 0.079051 0.064651 -0.18237 0.029768 0.081989 0.091355 0.079874 -0.24768 0.026883 -0.0072737 -0.0097451 -0.22274 0.38857 -0.13556 -0.015409 0.075869 0.23304 0.002546 0.20782 -0.13695 0.13736 -0.053624 -0.10395 0.052582 0.1968 -0.023951 0.04081
somali-americans 0.0038078 -0.15663 -0.35076 0.063223 0.045238 -0.11488 -0.35231 -0.080981 0.11333 -0.051681 -0.10064 0.17572 -0.00074479 -0.1423 -0.057854 0.0042139 -0.11936 0.006839 -0.1508 -0.18385 0.087047 0.19276 0.20506 0.20527 0.11029 0.14211 0.050959 -0.11371 -0.047223 -0.058548 0.2546 -0.21398 -0.089781 -0.05289 0.075912 -0.11793 0.1409 0.18196 -0.079321 0.19489 -0.062955 0.13126 -0.02189 -0.079709 -0.18035 0.08417 0.14136 0.20755
rocque 0.16247 0.067768 0.063308 -0.13892 -0.1084 0.070966 0.14945 0.17151 -0.0053004 0.10631 -0.084736 0.010378 -0.046984 -0.10669 0.026796 0.049356 -0.016541 0.09836 -0.1283 -0.037507 0.21145 -0.29935 -0.037816 -0.12757 0.075318 0.10316 -0.083866 -0.07418 -0.2343 -0.011491 0.2803 0.0014764 -0.0037496 0.42682 -0.09919 -0.042854 0.1815 -0.039882 0.079165 -0.0017695 -0.014447 -0.064204 0.13706 0.11925 0.42219 0.075318 0.13091 0.16265
mailings -0.16209 -0.064461 -0.0065162 0.0088113 0.13853 0.062525 -0.17904 0.027478 0.09394 0.25474 0.17199 0.15865 0.1809 0.30812 0.050935 -0.06727 -0.042618 -0.17891 -0.11654 0.0064944 0.1228 0.074699 0.10355 0.13888 -0.026051 -0.083323 -0.026046 -0.0097927 0.1103 -0.24937 -0.096779 -0.40678 0.17488 0.17278 0.20202 -0.080409 0.11337 0.11776 -0.11953 -0.032648 0.10031 -0.17133 -0.069492 0.12712 0.056518 0.040386 -0.17293 0.22286
affiliates -0.093295 -0.10455 -0.12874 -0.14916 0.068943 0.064352 -0.17497 -0.077976 0.112 -0.041324 -0.23098 0.17412 0.066263 -0.0019924 -0.087077 -0.026108 -0.092017 0.10774 0.088254 0.10343 0.27537 0.060963 -0.062817 0.23054 -0.15691 -0.30533 -0.12145 -0.049945 0.043172 -0.28737 0.22735 -0.053173 -0.097849 -0.25796 0.23407 -0.027364 -0.014732 -0.014724 -0.13468 -0.104 0.071778 -0.028591 -0.024224 0.33202 0.13688 -0.19609 0.0042613 0.032789
on-premise -0.090606 0.10459 -0.0036598 -0.17966 0.10259 0.074235 -0.080979 0.027393 -0.10488 0.0101 -0.13903 -0.051222 -0.04858 -0.037959 -0.11198 0.10281 -0.020425 -0.072855 0.048976 0.41609 0.030309 0.064049 0.24235 -0.029083 -0.25466 0.3037 -0.073337 -0.080611 -0.0069308 -0.12706 -0.068117 -0.14012 0.23263 -0.14983 -0.16928 0.095604 0.12332 0.13147 -0.19794 0.045797 -0.32041 -0.048094 -0.011564 -0.054101 -0.058135 -0.1875 0.15906 -0.22354
wagyu -0.063562 0.15168 -0.15218 0.13929 -0.032259 0.28696 0.071092 0.22891 0.15933 -0.19516 0.16227 0.239 0.026341 -0.19427 0.068423 -0.10087 -0.31618 0.00033747 0.26102 0.077568 -0.10344 0.018137 0.098888 -0.15869 -0.049448 0.098355 -0.19966 -0.079733 -0.064661 0.033039 0.039506 -0.14691 -0.087293 -0.08802 0.072995 0.12458 -0.15944 0.30917 0.1471 0.10009 0.001659 0.1406 0.22619 0.01216 0.036283 0.074998 -0.1243 -0.011273
affiliated -0.07046 -0.17402 -0.062603 -0.079122 0.14427 -0.003689 -0.28352 -0.025225 0.15388 -0.0093119 -0.046521 0.030775 -0.047191 0.011958 0.083738 0.15395 -0.066712 0.21737 0.13993 0.015977 0.21256 0.26644 -0.10442 0.10062 0.011962 -0.32595 -0.067619 -0.16925 -0.10867 -0.2652 0.097488 -0.014421 -0.12278 -0.14007 0.20881 0.073978 -0.052892 -0.0014612 -0.19157 -0.0075842 0.1435 -0.025908 0.049347 0.30864 0.17685 -0.24151 -0.13656 0.04523
karibe 0.10927 -0.081844 -0.1175 -0.078937 -0.048317 0.087714 0.072458 0.024488 0.079992 0.13512 0.046745 -0.04428 -0.36323 0.01427 0.044169 0.10866 0.12325 -0.070208 -0.1542 0.10631 -0.049374 -0.16528 -0.35308 -0.18793 -0.042745 -0.049169 0.24668 -0.088299 -0.13248 0.020173 -0.15798 0.039729 0.31372 0.0033112 -0.15412 -0.11603 0.071745 0.063035 0.14337 0.079766 -0.042382 -0.1217 0.14593 0.044695 0.069599 0.32782 0.11318 -0.2678
kids -0.075789 0.0079103 0.017843 0.076428 0.059715 -0.13545 -0.14857 0.080186 0.29883 -0.24695 0.010282 0.20494 -0.17023 -0.029685 -0.25325 -0.13172 0.13384 -0.054072 -0.30007 0.067841 -0.046147 0.1498 -0.059668 -0.11415 -0.1052 0.32782 0.017086 -0.2358 0.059677 -0.026366 0.018574 0.22237 -0.13857 0.060835 0.046318 0.25374 0.050102 -0.26956 -0.045106 -0.028851 -0.06049 -0.046782 -0.024021 -0.11425 0.062788 0.010529 -0.12455 0.20555
uplifting -0.16787 -0.084607 0.10917 0.043194 -0.21605 -0.020758 -0.10437 0.19316 -0.13928 -0.096746 0.12734 0.0021006 -0.11092 -0.084 -0.037436 -0.20267 0.00096714 0.079346 -0.23911 -0.0074219 -0.22907 -0.08935 0.25277 0.188 -0.14986 -0.051211 0.15229 0.15151 0.16826 0.0029252 0.057461 -0.10311 -0.023728 -0.24319 0.064359 -0.11502 0.10815 -0.11559 -0.26319 0.028722 0.12342 -0.22758 0.33835 0.15261 -0.035515 -0.12337 0.10651 0.084875
kidz -0.065833 0.028126 0.063485 -0.02368 -0.059887 0.01018 -0.079578 -0.02136 0.062176 0.054082 -0.024641 -0.049857 -0.042817 0.025434 -0.032428 -0.12873 -0.042079 -0.21277 0.20359 0.050654 0.17044 0.15986 0.37437 0.086615 -0.15919 0.00077368 0.16211 0.12086 -0.12522 -0.025933 -0.011999 0.091971 -0.12252 0.048944 -0.1559 0.10814 -0.0016176 -0.053497 -0.39643 -0.1446 0.38674 0.057115 0.25514 -0.2481 -0.095835 0.15133 -0.13632 0.028783
deferring -0.19169 -0.11597 0.17569 -0.29552 0.013023 0.12151 0.21721 -0.1886 0.084802 -0.055644 0.024191 -0.002553 0.005866 0.06827 -0.0073134 0.20255 -0.095984 -0.048565 -0.04326 -0.10791 -0.22321 -0.12248 0.22269 0.061752 -0.013739 -0.15837 0.15104 -0.07021 0.10613 -0.14474 0.21879 -0.040448 -0.080665 0.0060575 0.080763 0.15474 0.11818 0.13366 0.36458 -0.12321 -0.0010439 -0.029552 -0.076516 0.11714 -0.11754 -0.065136 -0.37814 -0.028016
controversy -0.19567 -0.11064 0.041558 0.075848 -0.11153 -0.11728 -0.0071843 0.072362 -0.11819 -0.0074953 -0.060589 0.20858 0.13388 0.30501 0.32024 -0.30936 0.014842 -0.14452 0.018801 0.1441 -0.0063902 0.08535 -0.23675 -0.24003 -0.11149 -0.054181 -0.018137 0.17937 -0.065366 -0.1793 0.11641 -0.061438 -0.0074541 0.21166 0.087036 0.17909 0.12535 0.14825 -0.044961 -0.016237 -0.06526 0.17009 0.013278 0.049261 -0.17964 -0.13489 -0.25281 -0.024949
wendelboe 0.15491 -0.026172 0.063969 0.12259 0.18308 0.22317 0.059349 0.0069598 -0.11812 -0.12412 0.089245 0.12275 0.088862 -0.0082455 0.054336 0.092377 0.058924 0.087636 0.2022 0.074995 -0.0034287 -0.025914 0.23752 0.08148 0.035641 0.1577 -0.061967 -0.19711 -0.22785 0.27281 -0.12975 -0.14028 -0.19869 0.098621 0.34955 -0.19826 -0.14995 0.1179 -0.10218 0.1343 0.10426 0.024898 -0.10665 -0.22842 -0.23216 -0.16829 -0.10013 0.039037
kidd 0.2124 -0.017379 0.26754 0.16876 -0.02308 -0.074501 -0.11013 -0.364 0.024685 -0.23879 -0.19769 -0.040258 0.28348 -0.073062 -0.098365 -0.014643 0.068365 -0.12228 0.0011965 -0.14343 -0.13713 0.00092203 -0.10494 -0.042583 -0.031105 0.10931 0.091889 -0.12282 0.093769 0.094342 -0.08683 -0.14332 -0.093738 -0.061026 -0.10616 -0.21398 0.058406 0.1529 0.28965 -0.26209 0.011942 -0.093621 0.093222 0.080486 -0.11927 0.024452 0.25406 0.05879
six-hit 0.13912 0.062881 -0.04035 0.073587 -0.070951 -0.087527 0.10956 0.045328 0.042426 0.092323 -0.062214 -0.14438 0.048627 -0.051874 0.14144 0.11364 -0.17037 -0.23402 -0.051056 -0.12328 0.19178 0.18623 -0.046938 0.064015 0.070123 0.29622 0.13216 0.16187 -0.25775 -0.06884 0.16908 0.01277 -0.034581 -0.046588 0.040851 -0.083847 0.015011 -0.30776 0.049855 0.059262 0.046493 -0.20622 0.055762 0.33596 -0.13583 0.11973 0.38437 -0.0084664
neurologist 0.097154 0.095905 0.21256 0.060799 0.26719 -0.30534 -0.17347 -0.027886 0.14412 0.1366 0.1472 0.14092 -0.072341 0.038618 0.12055 0.17905 -0.12206 0.082193 0.10956 -0.13597 -0.18652 0.18494 -0.16115 -0.18095 0.13903 -0.16457 -0.0166 0.022416 0.17273 0.097975 -0.034266 0.14727 0.01067 0.15422 -0.08461 0.029451 -0.16503 0.10915 -0.032869 -0.16299 -0.17489 -0.089279 0.15968 0.16002 0.086637 -0.31491 0.11319 -0.074253
doocey 0.086732 -0.048258 0.12721 0.0041676 0.050513 0.10129 0.077933 0.069564 -0.021869 -0.085936 0.17109 0.11318 -0.089931 0.17649 0.17208 0.19314 0.10519 -0.22425 0.14237 -0.03694 0.054754 0.059106 0.094318 0.1556 0.015637 0.036738 -0.1234 -0.067915 -0.28809 0.05991 -0.14815 0.016687 -0.043388 0.0053962 0.075566 0.089031 0.23234 -0.22304 0.019644 0.33054 0.40662 -0.03089 0.0069508 -0.32699 0.10433 -0.1039 0.0095766 0.13169
water-skiing -0.00041908 0.050645 -0.077024 0.057115 -0.14754 -0.1351 0.029955 -0.094305 0.016032 -0.058957 -0.01555 0.1453 0.0082499 0.044906 -0.23664 -0.041005 0.20623 -0.073482 0.21068 -0.28256 0.0067346 -0.022286 0.10094 -0.20995 -0.0088375 -0.039292 0.10373 -0.14364 -0.17156 0.071653 -0.066041 -0.03968 -0.095003 0.05869 0.19059 -0.044258 -0.34754 0.036261 -0.28917 -0.060454 -0.0098186 0.10757 0.044596 -0.3182 -0.33589 0.099275 -0.15911 -0.17341
gastein 0.14964 0.02442 0.039411 -0.04092 -0.10871 -0.099611 0.26698 0.14603 0.18337 0.024494 -0.043672 0.041025 -0.051357 0.03482 0.089655 0.001335 0.13502 0.073844 -0.12033 -0.028919 0.0014218 0.08586 -0.21845 0.058323 0.19867 0.15749 -0.0013123 0.056588 0.24124 0.080765 -0.083039 0.094846 0.076556 -0.28787 0.22821 -0.026468 0.1468 -0.18164 -0.10566 -0.017592 -0.10984 0.20655 -0.058886 -0.39588 0.16064 0.18709 -0.22982 0.16758
topography -0.11783 0.16647 -0.18918 -0.21306 -0.14264 -0.29037 -0.082673 0.092182 -0.36364 -0.091839 0.26571 -0.038443 0.24862 0.12404 -0.1865 0.08076 -0.078418 -0.19468 -0.13088 -0.0052729 0.17673 -0.15089 0.059526 -0.0058187 0.049947 -0.10495 -0.20095 0.051185 -0.10269 -0.066893 -0.039217 0.016669 -0.096013 0.10519 -0.090283 -0.089254 -0.090197 0.25696 0.058605 -0.07984 -0.15142 0.059937 0.096066 0.16187 -0.065874 -0.16354 -0.12359 0.071777
gainsbourg 0.086731 0.020785 0.23098 0.11909 -0.26209 -0.090986 0.0034429 -0.056062 0.08107 -0.0047421 -0.15229 -0.14549 -0.078027 -0.15737 -0.10179 -0.32035 0.025573 -0.27128 -0.19887 0.14877 -0.072506 -0.036612 0.23805 0.16201 -0.13429 -0.20937 -0.032389 0.014554 -0.078695 -0.13608 0.12987 0.1474 0.081489 -0.042845 -0.21505 0.10339 -0.12533 0.2089 -0.16316 -0.0051769 0.10648 0.15072 0.12206 -0.2281 0.11447 -0.0038963 -0.1354 -0.11782
mclaurin 0.2163 -0.068956 0.027251 0.019314 0.099298 -0.058836 -0.092374 -0.19253 -0.098705 -0.10758 -0.0051655 -0.10429 0.19784 -0.10952 -0.062296 0.27499 -0.11516 -0.032853 -0.24749 -0.025751 -0.032856 0.17648 -0.0098502 0.018582 0.0282 0.16371 -0.062349 -0.040639 0.082302 -0.029733 -0.10025 -0.066959 -0.27284 -0.024772 0.095802 -0.28043 0.1432 -0.11655 0.19103 0.1741 0.11726 -0.24174 -0.17506 -0.16688 0.0076069 0.2659 0.30357 0.062845
airball 0.080743 0.032926 0.11642 0.19955 0.030346 0.026112 -0.11569 -0.21666 -0.045044 -0.095331 -0.13752 0.041581 0.095522 -0.019471 0.065608 -0.02594 -0.025811 -0.19301 0.24659 -0.14077 -0.037511 0.007425 -0.18084 0.19674 -0.1584 0.11422 0.1419 -0.046489 0.038143 0.12498 0.016738 -0.085366 -0.016243 0.18558 -0.28579 -0.13906 0.24012 -0.044911 0.30193 -0.18223 0.19438 -0.18537 0.2131 -0.078736 -0.044604 -0.28409 0.023411 -0.16611
unsinkable -0.027753 0.015343 0.036813 0.081187 -0.22605 -0.076937 -0.02664 -0.13491 -0.0073975 -0.0030495 0.017936 0.024354 0.097106 -0.059891 -0.11967 -0.19239 0.11931 -0.029363 0.018721 -0.1459 -0.022555 -0.38037 0.12238 0.12474 -0.082226 -0.050026 -0.11131 0.019852 0.026846 0.017345 -0.1177 0.064849 0.24062 0.11215 0.15697 0.13367 -0.19124 0.14311 -0.29766 -0.015125 0.23054 0.094707 0.20287 -0.22496 -0.36728 -0.19547 -0.049715 0.088739
beigbeder 0.34135 0.0044141 0.01177 0.006223 0.13324 0.22075 0.3039 0.12578 -0.34519 0.010575 -0.020062 0.0063927 -0.0076536 0.066037 -0.09412 0.065768 0.20699 0.095909 -0.064765 -0.041952 -0.14288 -0.10227 -0.096037 0.21339 -0.01768 0.08809 0.067203 0.082073 -0.2141 -0.0098641 0.0056318 -0.11439 -0.14805 -0.14078 0.063024 0.0033494 -0.18949 -0.033394 0.072542 0.090324 0.085906 -0.23036 -0.20162 -0.3115 -0.15159 0.043293 -0.012481 0.1732
agassi 0.13224 0.0084553 0.11027 -0.066553 -0.091196 -0.022423 0.061862 0.055197 -0.001321 -0.083842 -0.16705 -0.007317 -0.034888 0.01433 0.010176 -0.11519 0.15457 0.0079368 -0.057594 -0.046695 -0.069313 0.12899 0.034329 0.11676 0.17146 0.17929 0.0128 0.087121 -0.0098563 0.041156 -0.16089 -0.067672 -0.16731 -0.16448 0.41686 -0.14165 0.14765 -0.0012918 -0.14224 -0.38348 -0.2368 0.12592 0.048824 -0.19378 -0.014447 0.31145 -0.29306 0.013566
dna -0.12528 0.16006 0.066395 0.058785 0.30329 -0.21334 -0.21161 0.18854 0.12977 0.032845 0.071519 -0.23197 0.29192 0.04302 -0.10335 -0.08691 0.23341 -0.097909 -0.095588 -0.096311 0.14521 0.10358 -0.34307 -0.11127 -0.084839 0.11857 -0.025203 0.14335 0.055613 -0.088617 -0.030922 0.077903 0.092044 -0.0083448 -0.30755 -0.20552 0.096606 0.1526 -0.044543 0.11461 0.038948 -0.070365 0.1763 0.035067 0.018449 0.085956 -0.045051 -0.066472
dnc 0.18182 -0.080668 0.066729 -0.018361 0.18037 0.060342 -0.0081319 -0.13541 -0.1229 -0.14187 0.056896 0.2441 -0.068656 0.21196 0.083188 -0.033962 0.16736 -0.24108 0.070885 0.036469 0.11216 -0.12195 -0.054507 0.23894 -0.10276 -0.026948 -0.084231 0.027893 -0.11844 -0.18154 -0.24733 -0.20949 0.17918 0.021803 0.13313 0.17444 0.31951 -0.059592 -0.037194 0.08256 0.17516 -0.10028 0.10317 -0.14612 -0.027433 0.036553 -0.11251 0.33474
dnb 0.01439 0.056755 -0.022541 -0.17035 0.00042878 0.034877 0.093383 0.039362 0.11125 -0.011451 -0.16549 0.17937 -0.031622 0.022347 0.08886 0.04714 -0.069949 0.18655 0.088445 -0.15603 0.20388 -0.17009 -0.16919 0.35626 0.0052555 -0.19726 -0.11623 0.040647 0.14679 -0.10234 0.21536 0.14819 0.06908 -0.35961 0.029242 -0.085833 -0.22061 -0.17537 -0.13959 0.21888 0.038633 -0.084054 0.065291 -0.2134 0.065517 -0.21349 0.11515 -0.09428
dno 0.064725 0.11276 -0.098795 -0.25877 0.050297 0.083275 0.078519 -0.054791 -0.016223 -0.11617 -0.22205 0.11994 -0.00094583 0.034007 0.015708 -0.15063 0.08771 0.28879 0.085836 0.09109 0.11233 -0.13042 -0.034556 0.26933 0.025104 -0.14727 0.082419 0.22899 0.14789 -0.20629 0.22043 0.23073 -0.21186 -0.27096 0.099051 0.0024492 -0.063624 0.058089 0.15599 -0.1302 0.21136 -0.025396 -0.28652 -0.0033057 0.061681 0.0012376 -0.13591 -0.041894
dni 0.049787 -0.11184 0.1301 -0.039205 0.10951 0.091285 -0.056653 -0.16952 -0.14386 -0.022749 -0.030596 0.17583 0.1744 -0.13054 0.066358 0.054718 0.090805 -0.065871 0.17932 -0.044372 -0.23576 -0.25741 -0.026199 0.1898 -0.01465 -0.040514 -0.29362 -0.20076 -0.10233 0.081999 0.19495 -0.11081 -0.022562 -0.27689 -0.05543 -0.10841 0.088688 0.012078 -0.075334 -0.15271 0.13366 0.13278 -0.39845 0.15734 0.148 0.16736 0.040783 0.075141
crothall 0.056603 0.051129 0.027452 -0.048264 0.043108 0.0129 0.11007 -0.16211 -0.079355 -0.15422 -0.1344 0.12295 -0.0053293 0.16726 0.18949 0.19319 0.11473 0.24734 -0.19424 0.15269 -0.073167 0.0049658 0.14457 -0.066981 0.19409 -0.090431 0.039664 -0.029868 -0.076014 0.31829 0.080727 -0.10111 -0.06096 -0.35389 0.069458 0.097786 -0.039664 -0.050237 0.16163 0.051075 0.24908 -0.19263 -0.35369 -0.088122 0.036103 -0.044702 -0.18983 0.019601
dnt 0.044211 -0.067281 -0.071951 0.072486 -0.12098 -0.036332 0.0065123 0.10611 0.030461 0.023768 -0.0072682 0.065258 0.020761 0.020939 0.033444 -0.032617 -0.044971 0.16082 0.039688 -0.043745 0.26595 0.05438 0.032935 -0.10358 -0.26636 0.12261 -0.021113 0.046576 0.16447 0.23698 -0.10025 0.32213 -0.26013 0.15329 -0.25211 0.20692 0.16111 -0.074178 -0.19173 -0.22953 0.28057 0.12951 0.12633 0.1065 0.097641 0.12947 -0.090458 0.26221
ferriday 0.028156 0.067391 -0.0654 0.050057 -0.24477 0.0033841 -0.16902 -0.024737 0.070813 0.13024 0.028033 -0.068177 0.010951 0.078836 0.14586 0.091134 -0.32421 0.10829 -0.025684 0.078933 -0.017475 0.028189 -0.11497 0.082798 -0.11731 0.011339 -0.23843 0.15548 -0.19123 0.11475 -0.22327 0.22354 0.096398 0.24059 -0.030753 -0.15061 -0.059338 0.10708 -0.20171 -0.070799 -0.021691 -0.17334 -0.46338 0.12224 0.036782 -0.16826 0.068688 0.0057598
dnv -0.064811 0.11137 0.068569 -0.044411 0.10271 -0.087553 0.033213 -0.13174 -0.07981 0.12675 -0.13427 0.23039 0.14932 0.14304 0.15982 0.046721 0.12709 0.10025 0.035681 0.028271 -0.20331 -0.38475 -0.077604 -0.0097321 -0.021059 0.12047 -0.12044 0.046807 -0.18172 -0.050724 0.2277 0.17113 -0.12717 -0.35357 -0.048157 -0.041193 -0.32369 0.0046897 0.018291 -0.065829 0.23171 -0.16301 -0.028635 0.067118 0.0030966 -0.018343 0.11842 -0.22195
dnp 0.014665 0.077761 0.085026 -0.031582 -0.2498 0.051058 0.069454 0.20979 0.17604 0.21752 -0.086581 -0.08514 0.0010467 0.10545 0.095345 -0.096153 -0.077681 0.09587 0.22159 0.05483 0.17793 -0.005536 -0.025302 -0.044252 -0.2665 -0.20498 -0.17836 0.21378 -0.049012 0.041997 0.11469 -0.079375 0.1373 0.042222 -0.11308 0.13565 -0.0084354 -0.1135 0.014151 -0.076376 0.015477 -0.16369 -0.1644 0.29563 -0.29203 -0.15145 0.19121 0.27627
dns -0.11575 0.00029791 -0.0061047 -0.11273 0.083979 0.031393 -0.13155 0.039439 -0.023148 0.23248 -0.05525 0.013605 0.14382 0.14999 0.043232 0.064327 0.046428 -0.064233 0.082266 0.28916 0.19124 0.12499 0.26763 0.094426 -0.35066 0.17073 -0.18458 -0.21644 0.091309 0.013733 -0.30779 -0.09636 0.20838 -0.13784 0.098875 0.031795 -0.1639 0.1336 -0.14448 0.050617 -0.095148 0.13683 0.018176 0.10374 -0.079065 0.14395 -0.2334 -0.057416
dnr 0.00064069 0.048909 0.034393 0.12968 0.1582 -0.084653 0.0013764 -0.1014 0.10006 -0.0017593 0.29825 0.11587 0.25167 0.20532 -0.086558 0.26391 0.049998 -0.16948 0.118 -0.080553 -0.11002 -0.11062 0.042574 0.002264 -0.049142 -0.07174 -0.033259 0.10521 -0.075726 0.20749 -0.072027 -0.19325 -0.0015997 -0.12233 -0.27848 -0.1509 -0.1885 -0.014754 -0.11176 -0.088357 0.30335 -0.054244 -0.20634 0.31721 -0.049532 0.064921 -0.13379 0.13853
now-traditional -0.11664 -0.19579 -0.10891 0.12111 -0.049555 0.0532 0.0071509 0.0065359 0.14911 -0.010991 0.091015 -0.068697 -0.25384 0.10081 0.21567 -0.032405 0.057271 -0.1777 0.10176 0.089636 0.26078 -0.019879 0.15726 -0.13352 -0.070322 0.32419 -0.17475 -0.14171 0.13382 -0.22197 0.028658 0.010552 0.069799 -0.15981 0.055766 0.11857 0.071534 0.068674 -0.075217 0.27126 -0.29956 -0.05282 -0.044165 -0.15832 0.035834 0.20199 0.048812 -0.25494
spaying -0.18462 0.051792 -0.10516 0.16379 0.14381 -0.11143 -0.061818 0.0069072 0.22105 -0.17699 -0.13842 0.10913 -0.04304 -0.032111 -0.21607 0.30254 0.19007 -0.10224 -0.010041 -0.15581 -0.029189 0.12565 0.14514 -0.2245 -0.20551 -0.05129 0.04876 0.16116 0.092614 0.023115 0.18078 0.0014867 0.071177 -0.083745 0.050035 0.0081684 -0.063504 -0.31661 -0.04575 0.18449 0.0065057 0.035526 0.005933 -0.13282 -0.031016 -0.1393 -0.32517 0.24863
benedikt 0.12878 -0.0060141 0.0001942 -0.0068765 -0.067897 0.032317 0.12113 0.32046 0.030817 0.24404 -0.11761 -0.097289 0.14099 0.010287 -0.064354 0.032816 -0.057629 -0.020901 -0.11889 -0.21054 -0.0032101 0.24568 -0.064308 0.13405 -0.13895 0.13012 -0.041454 -0.032308 0.07329 0.062458 0.19662 -0.057402 0.019392 0.11249 0.048758 -0.06481 0.047022 -0.15842 0.1188 -0.063693 -0.024855 0.19497 0.025273 0.36949 -0.37424 -0.17316 0.1982 -0.25723
borstal 0.017938 -0.044297 -0.050228 0.088019 -0.07234 -0.17212 -0.075945 -0.12983 0.12266 -0.013186 -0.1466 0.0042588 -0.0030676 -0.1451 -0.043753 0.23289 -0.073977 -0.0039081 -0.2125 -0.024553 0.09235 0.17753 0.065172 -0.017013 0.091685 0.14429 0.0086983 -0.15496 0.077973 -0.016481 -0.049781 0.16751 0.060926 -0.079335 -0.33009 -0.0051952 0.12144 0.27742 0.00043285 0.26259 -0.13636 0.15989 -0.064867 -0.30166 -0.19545 0.35859 -0.19877 0.068391
al-shara 0.24794 -0.2626 -0.10387 -0.036518 0.4136 0.2432 0.26652 0.11529 -0.2618 -0.0041867 0.23671 -0.029349 -0.21102 0.077035 -0.2013 -0.037984 0.080679 -0.062689 -0.073675 0.16416 -0.048516 -0.2437 -0.019522 -0.096971 -0.1191 -0.057873 0.084274 0.059442 0.0040642 0.020646 0.10334 -0.063641 -0.079483 0.049626 -0.063832 0.099068 0.047685 -0.23405 0.22645 0.013562 -0.015545 0.054418 0.011597 -0.11529 0.095707 -0.0068446 0.062237 0.080315
populations -0.13223 0.092643 -0.27402 0.024365 0.13186 -0.36454 -0.070333 0.15166 0.04546 -0.44803 -0.064079 0.084684 0.23963 0.092675 -0.34493 0.035875 0.074217 -0.069392 -0.065654 0.011223 0.085465 0.17196 0.092763 -0.072545 0.053984 -0.025618 0.050803 -0.024552 -0.027552 0.23453 0.16185 -0.040762 0.094747 -0.064739 -0.22968 0.070369 -0.0042442 -0.015384 0.12429 0.040307 0.028864 0.2243 0.024291 0.097705 0.062287 -0.051178 0.00038424 0.088472
mesmerize -0.19584 -0.028832 0.010268 0.035122 -0.10432 0.03145 -0.023087 7.5826e-05 0.039402 0.038393 -0.065222 0.046398 -0.01427 0.01713 -0.17188 -0.03791 0.23574 0.23671 -0.09432 0.035072 0.25956 0.221 0.17343 0.094241 -0.0058453 -0.056899 0.07034 -0.012395 0.096833 -0.07457 -0.23672 -0.30751 0.10349 -0.17719 -0.18226 -0.14798 0.0067454 0.080244 0.3305 0.16624 -0.31003 0.12618 0.23793 0.031095 0.15721 -0.11083 0.079515 -0.042911
quinnell 0.063072 0.17199 0.089173 0.00016753 -0.11057 -0.21189 0.092991 -0.1575 -0.12692 -0.074437 0.0669 -0.082554 0.046082 -0.23221 0.13494 0.038826 0.22957 -0.19126 -0.0031397 -0.066997 0.11608 -0.031483 0.22007 -0.24263 -0.089432 -0.079251 -0.0068074 -0.0040891 -0.21934 0.086832 0.118 0.076451 -0.49932 0.15253 -0.070807 -0.2632 0.027468 -0.070623 -0.073351 -0.085612 0.23344 -0.039872 0.11811 -0.017286 0.012449 -0.068546 0.11222 0.028133
yahoo 0.023559 0.029505 0.076415 -0.13279 0.055422 0.12005 -0.087961 -0.073572 -0.071691 0.016825 -0.22737 0.2072 0.020087 0.24234 -0.13094 -0.18589 -0.012958 0.10287 0.15034 0.33669 0.26021 0.033293 -0.13539 0.20882 -0.24094 0.1374 -0.10944 0.13535 -0.012217 -0.14297 0.064963 -0.014304 0.11107 -0.22977 0.1668 -0.032933 -0.14478 0.055098 0.11804 -0.066034 0.017447 -0.19006 -0.079652 0.045041 -0.2652 0.096713 -0.16314 0.19093
meteorologist 0.09341 0.08105 0.14456 0.040275 0.018 -0.1741 -0.05521 -0.42023 -0.085743 -0.23747 0.1485 0.10079 0.20621 0.093441 0.15136 0.0020979 -0.1744 -0.1406 -0.047618 0.070316 0.067198 0.036852 0.078323 -0.058015 -0.011641 -0.023566 -0.10032 -0.092596 -0.13372 0.13972 0.014918 -0.099528 -0.035807 0.11071 0.023011 -0.0916 -0.12412 -0.13894 -0.14523 -0.010415 -0.093493 0.070107 0.18492 0.2503 -0.17563 -0.33637 0.31832 0.089239
sylven 0.0019838 0.10851 0.11949 0.11171 0.31525 -0.32125 0.0068867 0.043667 0.01222 0.19067 0.14415 0.18439 -0.10528 0.0095771 -0.01671 0.040918 -0.10019 -0.04424 -0.13563 -0.07117 -0.023989 -0.0050135 -0.32429 -0.16928 0.23888 -0.082331 -0.026079 0.15278 0.033854 0.069161 0.090842 -0.18027 -0.10538 -0.039688 0.11841 0.024879 -0.11435 -0.04335 0.16845 -0.34823 0.05803 0.071805 0.058399 -0.3669 0.043434 0.033739 0.026757 0.076769
mswati 0.20787 -0.27403 -0.082076 0.0022587 0.13504 0.074255 0.25424 0.093622 -0.0088164 -0.23644 -0.093838 -0.084994 -0.23284 0.32485 -0.055557 0.012256 0.31603 -0.27836 0.071094 -0.055429 -0.15125 -0.053706 0.043916 -0.12506 0.15593 0.060665 0.047918 0.07468 0.078251 -0.079792 -0.09827 0.008109 0.21761 0.036664 -0.10122 0.11736 -0.14997 0.0074724 0.069405 0.082717 0.10635 -0.10003 -0.022822 -0.024939 0.24801 0.097322 -0.23569 0.0018858
expeditionary -0.021195 -0.050029 -0.14371 -0.16389 0.0313 -0.059868 -0.22093 -0.22903 0.020565 0.10584 -0.052454 0.029547 0.057001 -0.35428 0.0090719 -0.10201 0.10794 0.041662 0.23887 -0.34493 -0.26191 -0.1683 0.16193 0.018464 0.0094805 0.0022199 -0.2803 -0.1506 -0.10325 -0.089499 -0.061724 -0.0024319 0.08004 -0.14477 -0.017213 0.29559 0.0043482 -0.20433 0.12958 -0.091754 -0.010715 0.021 0.00027891 0.018095 -0.07209 -0.18859 0.11423 0.12555
al-sharq 0.096335 -0.18226 -0.10727 -0.012636 0.24346 0.16246 0.024967 -0.032896 -0.039051 0.050508 0.21089 -0.042636 -0.0098642 0.0102 -0.11428 -0.1368 -0.19447 0.062412 -0.21007 0.13218 0.093667 -0.069249 -0.00090015 -0.13157 0.02971 -0.23698 -0.029219 0.14387 0.044059 0.16071 -0.029757 0.41175 0.13347 0.059015 0.27158 0.19648 -0.15962 -0.25974 -0.018918 -0.22202 0.056567 -0.067292 0.072996 -0.0076491 -0.12867 0.13159 0.20467 -0.0025323
blustering -0.037496 -0.11001 0.057291 0.21657 -0.26246 0.029631 0.094913 0.0062772 -0.39357 0.044309 0.081801 0.13333 0.044352 0.12591 0.05003 0.054756 -0.084407 0.008794 -0.042212 -0.18397 0.0287 0.14175 0.05434 0.017451 -0.02509 -0.12721 0.088494 -0.1214 -0.28397 -0.093646 -0.11837 0.18996 0.09759 -0.011009 0.015324 0.27661 0.006642 -0.15123 0.078638 0.07708 -0.33078 0.10325 -0.1737 0.11934 -0.0097892 -0.15327 -0.20718 -0.23347
co-marketing -0.048565 0.1309 -0.021122 -0.13778 0.017318 0.1537 -0.11106 -0.073917 0.065488 0.077868 -0.25045 0.046117 -0.040306 0.0030384 -0.035492 -0.10662 0.15322 0.36509 0.23385 0.31014 0.054017 -0.067275 0.020993 0.10346 -0.059894 0.10122 0.052784 0.30943 0.13616 -0.21927 0.25543 0.067317 0.041212 -0.21976 0.072521 0.11338 0.047699 0.17145 0.33218 0.062593 -0.047491 -0.057279 0.06363 0.15014 -0.075199 -0.015825 -0.050875 0.015368
equilateral -0.088641 0.033012 -0.083914 0.075016 -0.028672 0.075192 -0.18947 0.046227 -0.11911 0.019446 -0.015764 0.01821 0.0022472 -0.014258 -0.1199 -0.074956 -0.065633 -0.19324 0.14553 -0.18107 0.16648 0.16343 0.052226 0.15922 0.055445 0.20045 -0.098142 -0.17002 0.0052027 -0.1398 0.31133 0.27748 0.016703 0.095037 0.082545 0.03171 0.09392 0.28834 0.11376 -0.013963 0.12785 0.33819 0.099229 0.28146 -0.097715 0.2051 -0.11419 -0.19609
ante-post 0.046333 0.026547 0.045019 0.00049983 -0.075401 0.023868 0.091613 0.0072166 -0.0056383 -0.0028183 -0.010246 0.12851 0.0096114 0.066261 -0.13364 -0.11458 -0.046518 -0.03338 0.22872 -0.24608 0.19914 -0.037494 -0.23202 0.10516 -0.027906 0.066909 0.14475 0.053646 -0.047816 -0.053156 0.035885 -0.15082 -0.012848 0.21496 0.13343 -0.14334 -0.28407 0.26288 -0.39808 -0.34349 -0.078178 -0.14683 0.029128 -0.24981 0.14841 -0.11437 -0.070995 -0.076922
kosslick 0.0395 -0.033677 0.065802 -0.017597 -0.001736 0.14367 0.10712 0.096691 0.027755 0.066998 0.22097 -0.0058424 0.03453 0.0081357 0.058565 -0.20864 0.080654 -0.046722 0.0036554 -0.22718 -0.091058 -0.13909 0.051113 0.009738 0.057252 -0.19371 0.1319 -0.030877 0.0051713 0.22942 0.058655 -0.09589 0.053111 -0.18476 0.32896 0.086898 -0.11589 0.207 -0.091321 0.1926 -0.25349 0.0058015 -0.16889 -0.039002 0.30037 -0.097404 0.41395 -0.11799
non-advertising -0.0024937 -0.041365 -0.10379 -0.036462 -0.010066 0.066579 0.0067478 0.072454 0.10996 -0.11631 -0.11492 -0.034392 -0.070281 0.056414 -0.18325 -0.10889 -0.17139 -0.052644 -0.1241 -0.15866 0.24894 -0.028956 0.2381 0.085334 0.22946 0.02641 -0.075406 0.10046 -0.055778 -0.11717 -0.09874 0.17714 0.13261 -0.083145 -0.085854 -0.091981 0.26295 0.14647 0.31484 -0.25728 0.12639 -0.20171 -0.23377 0.14689 0.10997 -0.24332 -0.23113 -0.048322
webos-based -0.0424 0.057455 -0.077259 -0.022783 0.021407 0.054241 -0.053904 -0.089007 0.038421 0.066131 -0.12958 -0.024879 -0.061333 0.016764 -0.059271 -0.090172 -0.014895 0.33011 0.19687 0.22069 0.10805 -0.054674 0.14699 0.006486 -0.046389 0.46319 0.11402 0.14177 0.02794 -0.031934 -0.13159 -0.23843 0.1749 -0.038599 -0.24917 0.022366 0.010679 0.31236 0.020723 0.132 -0.2752 0.0073966 -0.012832 -0.099149 -0.18212 -0.098964 -0.04076 0.18947
seracare -0.017838 0.0637 0.023829 -0.026195 0.069956 -0.012891 -0.049465 -0.002518 -0.12314 -0.058282 0.046474 0.0067865 0.0010535 -0.048845 0.038611 -0.069606 -0.012232 0.17817 0.19589 0.22427 0.026989 -0.25964 -0.072128 -0.17703 0.00052256 0.18616 -0.060419 0.29598 -0.02552 -0.11688 0.20686 -0.093923 -0.23023 -0.44214 0.016239 0.078357 0.092634 -0.031481 -0.16511 0.02754 0.20786 -0.32696 -0.21875 -0.033978 0.16422 -0.10504 0.023935 0.10059
steinweg 0.050306 0.0070096 -0.015635 -0.094793 0.11572 0.21055 -0.018445 -0.13911 -0.026139 -0.05447 -0.075573 0.00043461 0.026521 0.141 0.06583 -0.031936 0.08414 0.16599 -0.056196 0.0037845 -0.11997 0.039292 -0.26019 0.15463 0.23201 -0.24775 -0.020495 -0.03134 -0.038849 0.10263 -0.080017 -0.041603 0.03704 -0.2843 -0.14135 -0.061012 0.043592 0.04862 -0.16941 -0.092618 0.33053 -0.073843 -0.30343 -0.33404 -0.022158 0.023804 0.096249 -0.34239
gershom -0.01194 -0.10707 0.0039332 0.12557 0.13825 0.077451 -0.18572 -0.039403 0.059741 -0.07589 0.16884 -0.064532 0.23618 0.14175 -0.064321 -0.094959 -0.23977 0.25171 0.1615 -0.1233 0.019924 0.080391 0.22132 -0.051415 0.025017 -0.16753 -0.035504 -0.075903 0.1909 0.42713 0.24105 0.2266 0.021407 0.068999 0.26696 -0.058221 -0.064299 -0.13654 0.027542 -0.2275 0.048182 -0.068685 -0.14938 -0.026019 0.04869 -0.086768 -0.02489 0.0069012
old-guard -0.072762 -0.3173 -0.10366 0.049271 0.091807 0.13302 0.048435 0.10443 -0.15462 -0.038738 -0.070102 0.024633 -0.079546 0.017508 0.05343 0.024738 0.12925 -0.19249 0.20371 0.082937 -0.060815 0.34865 -0.03811 0.046133 0.20268 -0.10335 0.022018 -0.18552 -0.32883 -0.14486 0.036926 0.031974 0.19548 0.29601 -0.23103 0.040244 -0.19586 0.078048 0.073464 -0.16649 0.087246 -0.043932 -0.0099484 0.11918 0.098141 -0.11957 -0.17182 0.12495
gershon 0.2605 0.030567 0.28159 0.038133 0.011679 -0.099875 0.01407 -0.15831 -0.041824 0.055588 0.022283 -0.028194 0.0016926 -0.1174 0.20788 0.071813 -0.090961 -0.13555 0.022744 0.2352 0.12897 0.12726 0.34374 0.097715 -0.019911 -0.20105 0.044527 -0.080738 0.11682 0.15656 0.015805 0.10892 -0.1743 -0.10056 -0.18289 0.08018 -0.037005 0.19441 -0.088357 -0.19072 0.29181 0.17149 -0.099906 -0.043056 0.22442 -0.22432 0.092101 0.070122
ozment 0.089273 -0.11296 0.086126 0.028797 0.086925 -0.10487 0.16567 -0.10541 0.099391 -0.015848 0.0059039 -0.030457 0.17576 0.0093985 -0.07427 0.15284 -0.1785 0.028286 0.011748 0.17933 0.038285 -0.19017 0.067292 0.061975 0.14038 0.11233 0.098116 0.29227 0.19062 0.3532 0.00022039 0.17526 -0.20364 -0.14195 0.033942 -0.097748 -0.027012 0.0085518 0.14649 -0.15455 -0.040797 -0.28187 0.12682 0.074824 -0.27674 0.30497 0.10901 0.10039
tannehill 0.085383 0.076205 0.015113 0.085287 0.043558 0.011964 -0.064287 -0.12632 -0.098364 -0.081404 -0.088648 -0.016217 0.14759 0.13067 0.19729 0.046701 0.020824 -0.15416 0.057097 -0.088098 -0.15897 0.015519 -0.011528 0.13921 0.073951 0.2539 0.042716 -0.078992 -0.088382 -0.0012546 -0.15957 -0.18755 0.09347 0.1123 -0.077747 0.16877 0.24546 -0.042372 0.092832 -0.037607 0.50684 -0.29667 0.19484 0.14519 0.22417 -0.12536 0.14188 -0.090515
expressively -0.028154 -0.025365 0.10885 0.0082693 -0.082715 -0.032436 -0.11589 0.073609 -0.073371 0.033456 0.033474 -0.11643 -0.23226 -0.1735 0.053578 -0.067165 0.0064267 -0.04175 -0.18016 0.1442 0.015824 -0.037661 0.33478 0.28414 0.037864 -0.092644 0.034978 0.12367 0.22482 -0.041603 0.19184 0.15984 -0.18317 -0.13107 -0.31093 -0.17195 -0.051238 0.19228 -0.10941 -0.10303 0.11237 -0.085271 0.28291 0.03633 0.16559 -0.077568 0.0037636 0.28766
hyatt 0.091766 0.091447 -0.032225 -0.069494 -0.16579 -0.0092508 -0.023271 -0.014706 0.092554 0.028547 -0.02913 0.094368 -0.21077 0.0093104 0.13186 0.032709 -0.0096825 -0.0064786 0.2491 0.25712 0.1401 -0.19166 -0.35158 -0.25618 -0.0079119 -0.2709 0.25637 -0.27043 -0.11105 -0.081106 -0.16936 0.10174 0.045282 -0.0942 0.075149 -0.11169 0.072533 -0.058258 0.04285 -0.019423 0.078882 0.079448 -0.072122 0.21256 0.068838 0.037337 0.052011 0.33332
disparagement -0.20002 -0.2077 0.075663 0.11269 -0.10656 0.114 0.040303 0.09955 -0.066814 0.054417 -0.29019 0.080237 0.081241 0.11985 0.26203 0.081448 0.10918 -0.13107 0.080374 0.16776 0.26705 -0.16233 -0.075848 -0.10975 0.099779 -0.048082 0.057036 0.24844 -0.095655 -0.1715 -0.1826 -0.12334 -0.12029 -0.014517 -0.010532 0.10482 0.072127 0.28364 0.19833 -0.086009 -0.11876 -0.033577 0.0085578 -0.28935 -0.18306 -0.076634 0.017017 0.16678
titanium -0.12277 0.27186 -0.089483 -0.07262 0.17269 0.1624 -0.068156 0.024737 -0.1938 0.04244 -0.11495 -0.37166 -0.044912 0.05258 0.062296 -0.139 0.31711 0.091738 -0.12093 -0.11384 0.11574 -0.00107 -0.030635 0.095844 0.21743 0.029815 -0.12242 0.15969 0.080159 0.02931 -0.032046 0.025273 -0.2313 0.03295 0.08953 -0.0049811 0.12893 0.27102 -0.06509 0.06602 -0.11742 0.065953 0.19597 0.080769 0.17764 -0.23616 0.19428 0.10235
pinta 0.1053 0.12025 -0.082262 -0.08033 -0.29461 -0.11487 0.1954 0.42676 0.20096 0.070461 -0.012767 -0.12185 0.20804 -0.0099493 -0.19456 -0.0030057 0.18709 -0.046208 0.042341 -0.28969 -0.024837 0.039571 -0.0051967 -0.23017 -0.025501 -0.27796 -0.1133 -0.04036 -0.009191 0.12256 0.085661 -0.012269 0.044632 0.087235 -0.033354 0.0050717 -0.096278 0.017186 0.10339 0.0032379 0.13788 0.20024 0.0044682 -0.045455 -0.041108 -0.29285 -0.083182 0.14058
ichida 0.03314 0.0031247 0.013807 0.01181 0.038233 0.06726 -0.032622 0.15223 -0.15259 0.067085 0.099472 -0.13781 -0.12908 0.090861 -0.032199 0.12442 -0.15712 0.10903 -0.1989 0.11652 -0.19262 0.18482 -0.020572 -0.12836 0.2332 -0.18223 0.045804 -0.05066 0.03409 -0.10457 -0.18013 0.28034 -0.041097 0.075228 -0.056173 -0.035292 -0.1451 0.13071 0.25687 -0.030175 -0.19819 0.28239 -0.016584 -0.20453 -0.16541 0.21929 -0.14758 0.3191
pinto 0.31529 0.063123 0.046312 0.00053873 -0.15805 0.045936 0.3387 0.25353 0.039306 0.038396 -0.037351 -0.16731 0.1007 -0.24536 0.0059489 0.042606 -0.035257 -0.13176 -0.27133 0.073379 0.12885 0.070622 0.031504 -0.082891 -0.15237 0.1155 -0.22893 0.010937 -0.099527 -0.020297 0.27292 -0.11381 0.16903 0.11318 0.045779 0.10432 0.04836 -0.058124 0.056597 -0.039602 -0.013097 0.10428 0.16087 0.29457 0.08999 -0.14573 0.10708 -0.20133
nondiscretionary -0.17598 0.0027967 0.066461 0.045106 0.033831 0.076909 0.16052 -0.073193 0.13875 0.015057 -0.13174 -0.067285 -0.047029 0.024782 -0.044571 0.15741 -0.34193 -0.12068 -0.12573 -0.14885 -0.065043 -0.14066 0.16477 -0.091901 0.071948 -0.12828 0.15688 -0.0056833 -0.028498 0.019528 -0.067078 -0.021599 0.027767 0.04199 -0.050829 0.1863 0.14519 -0.043349 0.24954 0.0021976 -0.01205 0.033775 0.067705 0.094451 -0.19997 -0.40464 -0.47785 -0.0046874
kraig 0.18013 -0.091224 0.14479 0.088179 0.11826 -0.068708 0.0041385 -0.21422 -0.054016 -0.088437 0.10917 0.049486 0.16434 -0.076264 0.041665 0.38338 -0.0040953 0.11915 0.1469 0.031011 0.0021985 -0.064257 -0.14742 -0.01189 0.25222 0.11832 0.11205 -0.073421 0.015248 -0.13368 -0.31657 -0.21161 -0.22635 -0.059284 -0.2503 -0.15481 0.038675 0.075664 0.016802 0.20293 -0.011665 -0.31722 -0.11203 -0.12609 -0.067229 0.035073 0.092624 0.064986
tchaikovsky 0.021898 0.016681 0.094523 -0.057973 -0.11142 -0.045444 -0.019335 0.10528 0.036904 0.0828 0.051405 -0.11558 -0.085695 -0.086757 0.10052 -0.22259 -0.066559 -0.041916 0.023587 -0.054068 -0.12162 0.09719 0.27489 0.20887 -0.10393 -0.1338 0.25586 -0.054155 0.13207 -0.11034 0.0088874 0.00059517 -0.17652 -0.19258 -0.34674 0.0052464 -0.097615 0.2422 -0.24953 -0.057643 0.1784 -0.017646 0.24828 -0.12095 0.30122 -0.14865 -0.12289 0.15415
beyer 0.34535 0.035852 0.33884 0.11705 0.16512 -0.054339 -0.093924 -0.31951 -0.19895 -0.066689 0.05665 0.02968 0.049614 0.025113 0.12258 0.18506 -0.16412 0.14339 0.1087 0.011438 -0.081828 0.10398 0.048473 0.015526 0.063692 -0.093681 -0.068964 -0.16777 0.022439 -0.06529 -0.16876 -0.15116 -0.22096 0.19397 -0.1551 0.0053017 0.046128 -0.081966 0.23353 -0.087514 0.10688 0.012075 -0.28226 -0.086057 0.06745 0.047953 0.16253 0.12029
shirked -0.25307 -0.22965 0.14368 -0.042246 -0.094903 0.0086096 0.093871 -0.076191 0.38071 -0.072337 -0.11396 -0.060788 0.051295 -0.15 0.01989 0.28555 0.050056 -0.14312 0.061581 0.00031085 -0.39208 -0.032051 0.10972 -0.093093 0.04578 -0.19839 0.052526 0.040891 -0.12877 -0.050874 -0.020012 -0.064747 -0.15843 0.026988 -0.32403 0.10545 -0.034846 0.074023 0.071857 -0.13869 -0.16171 0.11997 0.20083 -0.10697 0.13958 0.035075 -0.03254 -0.064489
mohavedi 0.12263 -0.17819 -0.055731 0.031716 0.1895 0.10123 0.18024 -0.077172 -0.085812 0.014354 0.069783 -0.071403 0.02194 -0.035471 -0.0040637 -0.0015559 -0.064633 0.060379 -0.15071 -0.078908 0.042214 0.040702 -0.12345 0.015657 0.048552 -0.01781 0.21805 0.058923 0.179 0.073193 -0.1161 0.051142 -0.26832 -0.087911 0.024583 -0.17496 -0.042411 -0.051683 0.034344 0.35339 -0.3194 -0.16099 0.30872 -0.2353 -0.13653 0.22861 0.29079 -0.082409
airlocks -0.1078 0.15154 -0.032399 -0.03954 0.038572 -0.046863 -0.010284 -0.14681 -0.13048 0.22263 0.10229 -0.20387 -0.055819 0.19724 0.33696 -0.10853 0.036703 -0.046147 -0.243 -0.17721 -0.040103 -0.025611 -0.012329 -0.088525 0.075233 0.038665 -0.0070131 -0.27885 -0.2513 -0.16045 -0.074153 0.029005 0.11456 -0.20264 0.095535 -0.026704 -0.077722 0.084959 0.044198 0.092041 0.34323 0.24667 0.098461 0.14504 -0.018696 0.19262 -0.17028 0.059841
marbaugh 0.11724 -0.094655 0.009524 0.053011 0.015986 -0.049978 -0.13491 0.075909 0.064599 -0.068252 0.03199 -0.0031239 0.055689 0.27306 -0.25709 -0.12786 -0.069575 0.18925 -0.20801 -0.10942 -0.21301 0.1148 0.347 0.18825 0.068069 0.21696 -0.21423 0.01579 0.090974 0.055096 0.090142 0.051876 0.047256 -0.066318 0.073842 -0.14479 0.017309 -0.16852 0.11699 -0.20522 -0.17832 -0.058781 0.051731 -0.013717 -0.206 0.32541 0.087529 0.18915
dannon 0.015778 0.18086 -0.15646 0.04517 0.082725 0.28315 -0.099773 0.14018 0.13604 -0.16511 -0.21121 0.11431 -0.062982 0.06197 0.090387 -0.15011 0.057602 0.34891 0.23951 0.19089 -0.028578 -0.13765 -0.12382 0.071577 -0.017878 -0.021679 0.027077 0.42126 -0.13943 -0.069188 0.16893 0.1219 -0.10656 -0.060797 -0.070711 -0.028754 -0.057488 -0.14383 -0.22017 -0.042875 0.0064222 -0.10392 0.064553 0.2299 0.076469 -0.04189 0.037783 0.064701
fukunaga 0.10408 0.066261 0.15439 0.106 0.043157 0.090296 -0.036452 -0.20898 -0.23167 -0.08915 -0.045052 0.15129 0.016658 -0.19629 -0.04444 -0.024866 -0.029368 0.10099 0.026211 -0.013907 -0.15293 -0.089306 0.078035 0.16558 -0.09055 -0.015369 0.1768 0.017821 -0.037176 0.12584 0.12082 -0.078203 0.028632 -0.23134 0.13785 -0.017839 -0.045418 -0.080287 -0.056576 0.27957 -0.025534 -0.17486 -0.27426 -0.067142 0.46116 -0.16205 0.21017 -0.23325
ioer -0.15093 0.019799 -0.0073045 -0.045313 0.088724 0.015125 0.11462 0.0075861 0.047349 0.0093807 -0.10432 0.087426 -7.0009e-05 0.013799 -0.0147 0.028305 -0.36697 -0.11577 -0.13483 -0.43984 0.17658 -0.18828 -0.078035 0.33407 -0.082081 -0.15531 0.10977 -0.20975 0.2212 0.11986 -0.017754 0.1494 0.16534 0.0012684 -0.10005 -0.077842 0.030825 -0.15756 -0.057808 0.10405 -0.14267 0.16985 0.2475 -0.092444 0.0016078 0.0806 -0.022709 0.071579
hodson 0.22675 0.090614 0.24824 0.035423 0.15991 -0.022498 -0.11939 -0.31154 -0.15165 -0.24684 0.024122 0.088115 0.043628 -0.10702 0.13546 0.24185 -0.042464 0.004578 -0.0052951 0.10515 -0.03795 0.08916 -0.047847 0.028674 -0.058145 0.045334 -0.042614 0.052799 -0.020425 -0.0063745 -0.064954 -0.10937 -0.096449 -0.022513 -0.030902 -0.12977 0.19873 -0.37174 0.19353 -0.057975 0.12961 0.03421 -0.24462 0.13907 -0.17626 0.11888 0.33227 -0.081829
wintonlos 0.021754 0.04822 0.17252 0.028994 0.0019164 0.011441 -0.0088224 -0.18521 -0.016862 -0.005652 0.061574 0.038548 0.17857 0.041416 0.059348 -0.085991 -0.093531 -0.028079 -0.070788 0.0024672 -0.03078 0.17905 0.18475 0.0064586 0.064864 -0.19456 0.078782 -0.11118 -0.018722 0.28447 -0.054402 0.21388 -0.059625 0.096637 0.30741 -0.10623 -0.0090682 -0.07662 0.1788 -0.21925 0.050744 0.0088358 -0.23061 0.043284 -0.12323 -0.12912 0.52225 -0.2065
barbra 0.054603 0.073703 0.18128 0.11608 -0.101 -0.064252 -0.085978 -0.22647 0.11934 -0.16309 -0.081302 -0.15002 -0.01823 -0.14632 -0.011471 -0.23989 0.062466 -0.33806 -0.063594 0.14031 0.087006 -0.020775 0.15926 0.083947 -0.076245 -0.11404 0.021831 0.11358 -0.1332 -0.074706 0.082505 -0.027617 0.078787 0.1071 -0.17989 0.15544 0.01545 0.13372 -0.12397 -0.1813 0.20951 0.33688 0.22531 -0.20616 0.13066 0.032892 0.02106 -0.26007
axene 0.10105 0.052371 0.13295 0.011792 0.1606 -0.079018 -0.089057 -0.021288 -0.031513 0.10532 0.10052 0.14449 0.093357 0.1168 0.13414 0.038939 -0.066732 -0.088451 0.1674 -0.074881 0.049431 -0.19632 -0.010245 0.045198 -0.049001 0.046221 -0.094641 0.1759 -0.00096235 0.20508 0.18178 0.13063 -0.034088 -0.11324 0.010604 0.099338 -0.063585 0.038537 0.033383 -0.040448 0.34639 -0.35475 -0.42551 0.21022 0.19804 0.24466 0.10505 0.069187
arch-villain 0.069272 -0.077408 -0.038214 0.1619 -0.11725 0.0047053 -0.055942 -0.075607 -0.046908 0.035601 -0.41082 -0.10754 0.14941 0.065907 -0.035922 -0.20511 0.20231 0.27003 0.2483 -0.08244 -0.076681 -0.097796 -0.032752 0.045133 -0.10742 0.034581 -0.064355 -0.20822 0.016834 -0.022001 -0.075405 0.054592 0.095676 -0.10269 -0.035534 0.11306 0.019343 -0.14611 -0.029635 0.046272 0.025999 0.084155 -0.05886 0.16766 0.32113 0.081491 -0.39172 -0.2314
ex-fbi 0.10789 -0.1919 0.010996 0.0747 0.038122 0.036247 0.050864 -0.10121 -0.055237 0.12227 -0.042117 0.18495 0.15389 0.088289 -0.17884 0.096349 0.1239 -0.10497 0.13747 -0.048222 0.024892 0.01726 -0.066446 -0.091544 0.01274 0.066979 -0.25604 -0.10524 -0.00046124 -0.17873 -0.10708 -0.25784 -0.17352 -0.089224 0.012681 -0.27096 0.13058 -0.045653 -0.16165 0.31276 0.17623 -0.021383 -0.26607 -0.0050739 0.39317 0.19294 -0.038725 0.025723
assimilated -0.18213 -0.13139 -0.046781 -0.0089729 -0.20678 -0.14231 -0.15542 0.33332 0.19539 -0.21202 -0.088214 -0.22121 0.0073374 -0.031428 0.005135 0.021468 -0.0070173 0.25799 -0.10821 -0.06564 -0.1587 0.1569 0.21114 0.24926 0.10461 0.066494 -0.12724 -0.20766 -0.10457 -0.08873 0.069348 0.10132 0.16432 -0.12379 -0.086459 -0.002157 -0.095078 0.028396 -0.22255 -0.034323 -0.073721 0.072661 0.30363 -0.0004857 -0.12185 0.076351 0.16025 0.01791
garnishments -0.094814 -0.096233 -0.0039816 -0.01105 0.042158 0.024754 0.066279 -0.057458 0.30056 0.012623 -0.22375 0.054163 -0.063433 -0.0028297 -0.10472 0.23372 -0.22815 -0.38263 -0.22989 0.0082528 0.093724 -0.001847 0.22436 -0.081707 -0.18033 -0.041072 0.017581 0.053186 0.020938 0.0073441 -0.043535 -0.015836 -0.086914 0.10924 0.031586 0.073774 -0.11997 -0.12858 0.2942 -0.15743 -0.054322 0.056816 -0.17652 0.1875 0.22145 -0.10992 -0.31408 0.028046
dinosaurs -0.058658 0.095428 -0.083089 0.13824 -0.0058041 -0.14961 -0.19139 0.12918 -0.12235 -0.19482 0.029749 -0.092891 0.21455 0.1346 -0.47124 -0.013353 0.18771 -0.051887 0.098679 -0.24028 0.10738 0.020007 -0.17908 -0.1652 -0.010811 0.13528 0.10636 0.12899 0.053271 -0.059887 0.25187 -0.031582 0.16371 -0.11385 -0.15817 0.036623 -0.036955 -0.14138 0.29575 0.11988 0.034332 0.079025 0.070115 -0.0073265 -0.031294 -0.08194 -0.17672 -0.048195
wrong -0.16762 -0.18502 0.18889 -0.015397 -0.076689 -0.037595 -0.038008 0.075483 0.12321 -0.10716 0.11979 0.097133 0.23127 0.034706 0.026665 -0.18768 0.05473 0.17475 -0.15793 -0.10544 -0.0060658 -0.11645 -0.37664 0.029365 -0.10034 0.26922 -0.060844 -0.2403 0.040385 0.18008 0.0017707 0.18041 -0.04648 0.10988 -0.075043 0.26976 0.095528 0.15371 -0.11915 -0.16114 -0.0029136 -0.051356 0.23807 0.04118 -0.057995 -0.23239 -0.16048 0.0063592
wrona 0.13503 -0.10686 -0.024389 -0.064063 -0.065756 0.066927 0.052479 -0.058325 -0.10309 0.12229 0.061335 0.21045 0.014694 0.040702 -0.040774 -0.14209 0.23284 0.051601 -0.091666 -0.17243 -0.24354 -0.21195 0.12803 0.21781 0.024988 0.052895 -0.18968 -0.23945 0.082921 0.087484 -0.019673 -0.21209 0.085756 -0.25015 0.043183 0.24777 -0.095299 -0.23888 0.11654 -0.19853 0.082035 0.0092159 0.1897 -0.03414 -0.27317 0.14537 -0.020056 -0.20289
sentencing -0.076312 -0.1463 0.079928 -0.020402 0.069456 -0.018233 0.02903 -0.029312 0.12001 -0.059077 0.0090288 0.03759 0.17645 0.16394 0.069719 -0.056963 -0.046863 -0.23438 0.036129 -0.04527 -0.03987 -0.092206 -0.029368 -0.25891 0.094772 0.14284 0.19563 0.087089 -0.0074843 0.030314 0.022271 0.14268 -0.21865 -0.081125 -0.21802 -0.28319 0.14389 0.20447 -0.019296 0.17681 -0.30687 -0.060788 0.26658 0.0088877 -0.27529 -0.026842 0.33547 -0.061227
eltahawy 0.1634 -0.28679 -0.05768 0.12876 0.22297 0.032881 0.015991 -0.031573 -0.073718 0.018012 0.10188 0.004996 0.088458 0.14381 -0.074738 -0.049869 -0.061826 0.14721 -0.21795 0.13284 0.077915 0.035551 0.15568 -0.093517 0.18984 -0.12489 0.0898 -0.019339 0.17812 0.31585 -0.0075287 0.18853 -0.014218 -0.14027 0.3984 0.08575 -0.18205 0.0054351 -0.035684 -0.028684 0.16244 -0.10779 0.0095339 -0.078283 -0.27437 0.23192 0.10496 -0.051953
military-based -0.092475 -0.2107 -0.11616 -0.023245 0.12282 0.019296 0.21758 0.054256 -0.054567 -0.04938 -0.091256 -0.21744 0.056559 -0.036852 -0.11344 -0.15933 0.17628 -0.065668 0.21165 0.1336 -0.10924 0.15963 -0.15606 -0.082053 0.02584 -0.13473 0.015931 0.031816 0.20372 0.0043034 -0.22268 0.11023 0.33295 0.13741 0.059756 -0.098165 -0.21091 0.16387 -0.26274 -0.18905 0.089845 -0.047129 0.28057 0.24083 0.066579 -0.044304 -0.023459 -0.023648
freshens -0.25657 0.013007 0.046938 0.1854 -0.052078 0.18241 -0.096253 0.011682 0.092675 0.022905 0.16267 -0.17405 -0.047655 -0.064883 -0.01468 -0.0088864 0.11652 0.061642 0.1667 -0.15999 0.19136 0.18879 -0.032038 -0.10649 -0.16441 0.019973 -0.012245 0.081657 -0.015276 0.13063 -0.27099 0.093936 -0.12191 -0.20175 -0.025989 -0.23556 -0.087758 -0.097617 -0.12732 -0.031886 -0.24051 0.13375 -0.39901 0.13041 0.21624 -0.19003 -0.076435 0.05797
chandor 0.05385 0.031038 0.17984 0.091942 -0.027999 0.075036 0.056488 -0.20672 -0.16383 -0.045646 0.01712 -0.026913 0.035784 -0.11892 -0.090548 -0.016091 -0.089643 -0.088542 -0.096748 -0.018451 -0.076734 0.002966 0.042238 0.15948 -0.053276 -0.044816 0.21957 0.062923 0.0090589 0.032386 -0.010182 -0.090402 0.10993 -0.15623 0.32982 -0.06041 0.0011416 0.020581 0.022619 0.23619 -0.1583 -0.04284 -0.28716 0.020986 0.52101 -0.19873 0.26819 -0.16047
chandos 0.038877 0.046568 0.15899 -0.011635 -0.1169 -0.11804 -0.043218 0.046025 0.29517 0.059916 0.067586 -0.27973 -0.11652 -0.080538 -0.030007 -0.14929 -0.19674 -0.016134 -0.036538 -0.0017927 -0.00079957 0.009034 0.24988 0.16141 -0.081066 -0.24417 -0.0013327 0.06996 0.067336 -0.12285 -0.12764 0.018444 -0.05207 0.14453 -0.24669 0.065428 0.091479 0.23096 -0.069542 -0.16393 0.11714 0.071661 0.187 -0.31772 0.26607 -0.10464 -0.1442 0.21643
deficit-fighting -0.10642 0.016105 0.10483 -0.10884 0.04564 -0.043054 0.13904 -0.10126 0.053327 0.012623 -0.030137 -0.10762 -0.08868 -0.0047787 0.054712 0.094304 -0.16849 -0.29561 0.13718 -0.18101 -0.051205 0.049672 0.11358 0.10603 -0.1302 0.071711 0.060645 -0.022347 0.047341 0.040471 0.16681 -0.023881 0.079273 0.074902 -0.010566 0.066576 0.12182 -0.094863 0.24038 0.53532 0.045498 0.059262 -0.083993 -0.2197 -0.20902 -0.066576 -0.29906 0.24201
chandon 0.077414 0.19608 0.014209 -0.0027491 -0.17541 0.23 -0.0034707 0.29137 0.23298 0.12062 -0.16971 -0.053491 -0.086227 -0.2311 0.053095 -0.25084 -0.056227 -0.079274 0.12234 0.057344 0.058814 -0.12859 -0.28517 -0.091322 -0.074509 -0.28664 -0.0056558 0.053021 -0.31474 0.052758 0.11482 0.030869 -0.10637 0.24002 -0.037155 -0.07036 -0.10752 0.036502 -0.084688 -0.078482 -0.060447 0.080223 -0.098376 -0.03876 0.07748 -0.17578 0.076093 0.22444
disengaging -0.24324 -0.16505 -0.012658 -0.19126 -0.03299 0.0052007 0.12392 -0.16659 0.088817 -0.0094334 -0.042608 -0.05499 0.015776 -0.12923 -0.051527 -0.081592 -0.086465 0.12436 0.14416 -0.12828 -0.26638 -0.093145 0.054884 0.20774 0.24594 -0.26078 -0.20132 -0.051063 0.13628 0.038435 0.046537 0.22107 -0.040003 0.23577 -0.0043973 0.06613 0.0095539 -0.024592 0.24892 -0.011729 -0.39805 0.12158 0.041792 -0.17299 -0.026158 0.1008 -0.098449 -0.12265
smashers -0.0071267 0.16302 -0.032972 -0.014683 0.064806 0.09462 0.08891 0.0012194 -0.27984 0.072293 0.097726 0.014859 -0.11065 0.12158 0.16649 -0.13967 0.19354 0.16329 -0.13841 -0.16207 -0.10205 0.15371 -0.032459 -0.03642 -0.15686 0.11021 -0.11494 0.20775 -0.12703 -0.28666 -0.10751 0.1847 0.11922 0.19317 0.099629 -0.0066947 -0.072336 0.43049 -0.10877 0.17649 0.11022 0.25083 0.094663 -0.10244 -0.0052883 -0.019377 0.096426 -0.033468
snugly -0.16088 0.057938 -0.067626 0.00018179 -0.044612 0.10895 -0.077731 -0.039201 -0.14221 0.077603 0.10925 -0.11869 -0.17233 0.0053982 -0.012832 0.14683 -0.0075974 -0.19091 0.13861 0.060225 0.091363 0.1224 -0.1313 0.28042 0.21364 0.17472 -0.3509 -0.074648 0.11145 0.10256 -0.18298 0.2615 -0.28061 -0.040954 0.16917 -0.11661 0.21628 0.13743 0.016936 0.041485 -0.076288 0.16842 0.10336 -0.0095478 0.20125 -0.22126 0.024943 -0.086351
elisra 0.036265 0.072094 -0.13558 -0.10268 0.005851 0.089824 -0.085354 0.031987 0.074259 0.048282 -0.29328 0.085785 -0.05434 -0.026779 -0.019827 -0.17368 0.25544 0.32452 0.17019 0.15526 -0.062171 -0.14909 -0.059432 0.18911 0.12667 0.055985 -0.0024376 0.26286 0.082845 -0.31717 0.22678 0.18083 -0.076236 -0.26945 -0.03946 0.19046 -0.10743 0.0012575 0.17684 -0.11818 0.0097744 0.041166 -0.062232 0.09064 -0.074215 -0.2042 -0.066575 0.072554
welcomed -0.090116 -0.23233 0.083863 -0.21423 0.046532 0.0060008 0.13373 0.023863 0.21573 -0.2146 0.25845 -0.076082 -0.11303 0.1031 0.09774 -0.14403 0.27556 0.00073807 -0.0077254 0.083933 0.016177 0.11594 -0.022911 -0.17464 0.0010798 -0.29373 -0.077753 0.065074 -0.14977 0.13408 0.30327 -0.13059 0.12628 -0.012948 -0.1001 -0.032965 0.1326 -0.010239 0.029108 0.22325 0.072494 0.1819 0.14075 0.15598 -0.085712 -0.28691 0.021451 -0.058942
concurrence 0.0032696 -0.074737 0.22307 -0.10271 -0.0083777 -0.055268 0.023792 0.12285 -0.014049 0.016813 0.091323 0.00040949 0.19415 0.049755 0.19766 0.0711 -0.050233 -0.068296 0.30433 -0.0089861 -0.078197 -0.094001 0.11408 0.1451 0.057938 0.076051 0.14331 0.084598 -0.26644 0.28382 0.19964 0.088756 -0.044144 0.022294 -0.23102 -0.28011 -0.098079 0.087976 0.29438 0.15269 -0.22337 -0.034638 -0.20858 -0.0089694 -0.088743 -0.22983 -0.076954 0.11947
malba 0.043033 0.072359 -0.11444 0.057157 -0.095542 -0.023749 -0.10336 0.062032 -0.057953 -0.030801 -0.082974 -0.11001 -0.038982 0.13599 -0.13881 0.19092 -0.11031 -0.06571 0.048483 0.15537 0.059103 -0.17522 -0.16672 -0.034449 -0.22627 -0.20684 0.27559 -0.15282 -0.22438 0.029281 -0.15218 -0.052487 0.21133 0.0093707 0.12319 -0.10293 0.2175 -0.11782 0.27087 -0.080817 -0.0030591 0.052353 0.0084753 0.23597 -0.08593 0.38841 -0.21022 0.064729
stoicism -0.12493 -0.091716 0.025248 0.069614 -0.20298 -0.13969 -0.032078 0.10556 -0.13412 -0.095291 -0.15074 0.20302 -0.20246 0.015579 0.059519 -0.083004 0.12776 0.049766 -0.23605 -0.046517 -0.31881 -0.077959 0.0023698 -0.017136 -0.066349 -0.094128 -0.26111 0.25453 -0.25002 0.10202 -0.31362 -0.11141 -0.054283 -0.16097 -0.19042 -0.22808 -0.19315 -0.1423 0.17788 0.036086 -0.018582 -0.078923 -0.049506 0.14289 0.031669 0.043182 -0.0095879 0.017181
tillamook 0.013757 0.21499 -0.3084 -0.066257 -0.28026 -0.15017 -0.014275 -0.043893 0.0020054 -0.10973 0.19176 0.2062 0.067985 -0.15155 0.18599 0.2153 -0.10082 0.12128 0.26557 0.078069 -0.082338 -0.12266 -0.0147 -0.06323 -0.13001 0.11294 -0.22127 0.018887 -0.12455 -0.042693 -0.26719 -0.031112 -0.070263 0.11533 -0.026721 0.11378 -0.16809 0.26654 0.094761 0.23029 0.14011 -0.016882 0.040984 0.095339 0.14197 -0.0061461 0.054196 -0.088104
j.d.b. -0.007706 -0.15458 0.014104 -0.0099836 0.039169 -0.091055 -0.052371 0.10171 0.1308 -0.067621 0.013101 0.063671 0.2067 0.12641 0.1476 0.14781 0.014177 -0.0037199 0.034725 0.032921 0.095906 -0.10821 -0.013688 -0.071812 0.20614 0.28997 0.071193 0.23379 0.1008 -0.1131 -0.1694 0.21522 -0.17675 -0.081476 -0.28349 -0.28127 0.1042 0.17067 -0.038415 0.076843 -0.13017 -0.010485 0.25675 -0.20085 0.032546 0.34814 0.048026 0.13768
virage -0.1007 0.051172 0.020537 -0.095499 0.0098363 0.052108 -0.13238 0.073322 -0.10999 0.13959 -0.090034 0.016577 -0.13674 -0.11579 -0.13473 -0.064967 0.12222 -0.0079228 -0.004947 0.02193 0.18214 -0.20587 0.025979 -0.21617 0.018556 0.24597 -0.0058614 0.080329 -0.070787 0.052134 0.20421 0.045805 0.18413 0.29206 0.072302 -0.15023 0.044373 0.01117 -0.084278 0.14255 -0.10886 0.10697 0.45282 0.24183 0.22953 0.25824 0.097816 0.08907
concurrency -0.18215 0.11026 0.010773 -0.11016 0.12338 -0.026847 -0.057992 -0.011145 -0.14684 0.17086 -0.24 -0.00041854 -0.024777 -0.17179 0.032672 -0.076318 -0.031927 -0.15164 0.038877 0.028414 -0.021156 -0.034326 0.33413 -0.23367 -0.2104 0.17662 -0.016637 0.044863 -0.0051807 -0.054846 -0.062638 -0.063135 0.15992 -0.10038 -0.18778 0.22167 0.1214 0.20617 -0.027934 0.071944 -0.34305 0.33716 0.060116 -0.13243 -0.094092 -0.21067 0.054309 -0.052635
claflin 0.186 -0.016057 0.21312 0.13463 -0.0031295 -0.065989 -0.015126 -0.28771 -0.0505 -0.30353 -0.11238 -0.085207 -0.037517 -0.20016 -0.039797 0.068628 0.041061 -0.14456 -0.10877 -0.025628 0.011624 -0.055452 0.19316 0.18569 -0.032526 0.026287 -0.022994 -0.068378 -0.18407 -0.19566 0.043957 -0.28862 0.081782 -0.042349 0.003018 -0.089554 -0.027272 0.19734 -0.022317 0.22591 -0.17438 0.080302 -0.21801 0.002282 0.26228 -0.042443 0.023797 -0.33793
activating -0.25422 0.10468 0.067869 -0.018543 0.30736 -0.2236 0.12349 0.0031835 0.01373 0.24513 0.054281 -0.23726 -0.085629 -0.10759 0.078754 -0.028695 0.2871 0.062173 0.077253 0.13236 0.21947 0.049283 0.098993 0.094665 -0.25314 0.023332 0.024058 -0.32624 0.068037 -0.036437 -0.17135 -0.17171 0.062974 -0.032057 -0.022684 -0.049308 -0.026568 0.039641 0.27005 0.12592 -0.21316 0.13735 0.0098717 -0.021669 0.10723 0.11513 -0.10046 -0.00072774
takeshita 0.10182 -0.034311 0.13734 -0.009272 0.11688 0.10723 0.20889 -0.059455 -0.25378 -0.0018265 -0.0018659 0.1406 -0.26674 0.029588 -0.080144 -0.0036611 -0.13965 0.0359 -0.021423 -0.058185 -0.10018 -0.11092 -0.17859 -0.036551 -0.10492 -0.038828 -0.077536 0.10223 -0.074039 0.049168 0.054614 -0.10449 0.14344 -0.15203 -0.0040945 0.098572 -0.24908 -0.15046 -0.17985 0.14465 0.042388 -0.14127 -0.05454 -0.41275 0.33445 -0.11068 0.30442 -0.017612
welcomes -0.081865 -0.18975 0.064428 -0.21182 -0.03668 -0.041243 0.099941 0.0058376 0.23536 -0.23481 0.25118 -0.1025 -0.11154 -0.017377 0.070066 -0.14889 0.28791 -0.011895 0.081287 0.12701 0.10614 0.00028166 0.040327 -0.28399 0.03833 -0.31362 -0.072711 0.082013 -0.019116 0.084027 0.15961 -0.16445 0.048523 0.00055818 0.0079283 -0.069481 0.24135 -0.13065 -0.045564 0.090565 0.11322 0.33964 0.11372 0.17634 0.116 -0.14472 0.025443 0.0082655
fir -0.0080987 0.14994 -0.1428 0.064033 -0.14461 0.02378 0.026281 -0.04701 -0.10129 -0.16265 0.17387 -0.096441 -0.057049 0.21277 -0.089878 0.18904 -0.025199 -0.2497 0.10337 -0.035898 0.038631 0.033922 -0.22833 0.0047853 -0.013843 0.029698 0.10427 0.012805 0.042161 0.13045 0.15806 -0.10376 -0.051801 -0.25827 0.14464 0.0035155 0.30675 0.012435 0.010526 -0.31145 -0.20114 0.24739 0.11088 0.33436 0.05016 -0.0059026 0.20409 0.10928
fis 0.24884 0.062272 0.065143 -0.11317 0.066429 -0.038527 0.11847 -0.050191 -0.0031769 -0.067929 0.01334 0.022765 -0.019446 -0.082517 0.070535 0.0080378 0.013627 0.10742 0.060084 -0.011782 0.22334 -0.062553 -0.1166 0.073088 -0.0072637 0.06901 0.067035 0.10135 0.06367 0.046684 -0.092591 0.035849 0.008689 -0.14711 0.18213 0.11275 -0.092383 -0.059831 -0.23575 -0.21121 0.099169 -0.22731 0.41244 0.052198 0.11552 -0.097232 -0.32669 0.45772
ex-dividend -0.065958 0.022175 -0.01354 -0.11349 -0.024646 0.085632 0.027882 0.056482 0.088691 -0.015892 -0.044084 0.11263 -0.064596 0.25658 0.029866 -0.16263 -0.19294 0.16514 0.1194 -0.11058 0.27892 -0.10392 -0.10209 0.08837 0.30805 0.10471 0.012304 0.10722 0.0022544 -0.13542 0.20655 0.072615 0.17271 -0.25978 -0.22977 -0.24218 -0.15642 -0.0035477 -0.051747 -0.14243 0.023058 -0.25583 -0.23461 -0.21337 -0.085314 -0.032537 0.17426 -0.083928
sonority -0.12966 0.0047848 0.054825 -0.097223 -0.074801 0.0070431 0.018835 0.071881 -0.055387 0.024226 0.14838 0.0084076 -0.066697 -0.21594 0.07976 -0.10267 -0.062206 -0.0049243 -0.046067 -0.091674 -0.11565 0.083393 0.25314 0.24486 -0.090525 -0.25933 0.090597 0.11721 0.096743 -0.073466 -0.064463 0.054134 -0.27181 -0.3034 -0.29214 -0.18555 0.0081234 0.28988 -0.068592 0.011124 0.27455 -0.044556 0.11871 -0.029767 0.18283 -0.19829 -0.0067917 0.21913
fiv -0.15211 0.13401 -0.10088 0.33519 0.31751 -0.29446 0.029575 0.18822 0.20418 0.0087375 -0.074995 -0.005006 0.087598 0.093955 -0.26833 -0.028823 0.24134 0.061259 0.17213 -0.090325 0.077242 -0.019327 -0.12142 0.14003 -0.12197 -0.019302 0.23616 0.012911 0.01195 0.085001 -0.055407 0.042622 0.24683 -0.15529 -0.054369 -0.02566 0.060013 -0.1309 0.092671 0.032816 0.1238 0.2072 0.14746 0.048588 0.10779 0.075567 -0.097513 0.1537
oguchi 0.18782 -0.0094379 0.016892 -0.066333 -0.088545 -0.021522 0.22704 0.25991 -8.8142e-05 0.13184 -0.094929 -0.1151 0.10534 -0.13732 0.04599 0.065994 0.026433 -0.0089354 -0.11266 -0.17535 0.046444 0.25921 0.024832 0.078508 -0.15284 0.13622 -0.091768 -0.12682 0.11694 0.16677 0.094046 -0.087067 0.003815 -0.01241 0.058959 -0.042739 0.22383 -0.17965 0.025678 -0.11393 0.077197 0.25896 0.053871 0.44338 -0.24137 -0.0035336 0.25258 -0.12544
fit -0.24183 -0.050122 0.18561 -0.19515 -0.05103 0.037417 -0.027543 0.079899 0.066899 -0.10021 0.088888 -0.21914 -0.076545 -0.20219 -0.18888 -0.022523 0.21453 0.061079 -0.079326 0.051816 -0.080586 0.034544 -0.1405 0.070711 0.19547 0.33011 -0.043071 -0.17829 -0.11583 0.05517 0.042597 0.028473 -0.24509 0.062517 0.032794 0.052341 0.11301 -0.18181 -0.22716 0.027162 -0.1951 0.011133 0.1851 0.3261 -0.21728 -0.093883 0.0071446 0.10033
fiu 0.14457 0.045137 0.0088645 -0.019973 -0.032624 -0.050269 -0.012681 0.017259 -0.082236 -0.12933 -0.065973 0.098183 0.041323 0.059305 0.19376 0.30588 0.052056 -0.073231 0.051065 -0.20362 0.10248 0.18191 -0.12012 -0.061797 -0.020381 0.25164 0.20395 0.10236 0.097088 -0.21096 -0.32196 -0.22357 -0.26571 -0.092871 0.042161 0.045476 0.17276 -0.17473 0.070062 -0.070329 0.0038374 0.025523 -0.023735 0.14264 0.29924 0.11099 0.22197 0.18801
lifeline -0.15377 -0.026711 -0.17016 -0.23609 0.0019869 -0.069868 0.11267 -0.18542 0.23002 -0.14486 -0.11312 0.074985 -0.074265 -0.0095878 -0.14596 -0.0032493 -0.029375 0.094312 -0.084118 0.0089368 -0.17806 0.20186 0.0065818 0.13089 -0.27844 -0.29939 -0.12137 0.17722 0.26097 0.049464 -0.088657 0.12779 0.17656 0.20072 0.099745 -0.0268 -0.060692 -0.15348 -0.073721 0.11673 -0.017262 0.19222 0.2832 0.18349 -0.059791 0.017729 0.13867 0.050038
screaming -0.16208 -0.1227 -0.0026647 0.18503 -0.19493 -0.018874 0.045323 -0.15153 0.10954 0.097305 0.010915 0.097683 -0.25734 0.03214 0.04184 -0.11324 0.18929 0.064158 -0.1316 -0.029081 0.12288 0.24292 -0.012346 -0.15126 -0.20985 0.017778 0.036182 0.036416 0.10305 0.17734 0.18719 0.26971 -0.097233 -0.18261 -0.19977 0.18491 0.10985 -0.045421 0.16287 -0.038498 -0.1284 -0.10759 0.22261 -0.18084 0.056956 -0.048964 -0.25104 -0.2408
fix -0.25588 0.0025853 0.19879 -0.16715 0.0434 0.04444 0.14283 -0.16314 0.044233 0.039631 -0.020542 -0.069651 -0.07452 0.093575 -0.037914 -0.060598 0.016984 0.063653 0.013254 0.089007 -0.15724 0.081046 -0.071973 -0.041699 -0.33227 0.3126 -0.12125 -0.18348 0.059803 0.16061 0.049506 0.041745 -0.085503 0.35484 0.056402 -0.010381 0.082989 -0.081734 -0.08911 0.098792 0.048351 0.03368 0.29309 0.1214 0.046237 -0.046645 -0.35313 0.2153
zelboraf -0.082851 0.16481 -0.010579 0.16415 0.32712 -0.25394 0.045688 0.17592 0.28192 0.20209 -0.044865 0.029689 -0.14696 0.0010174 -0.13195 -0.1129 0.10119 0.029739 0.24809 -0.036958 -0.033276 -0.12126 -0.070771 0.1809 0.030705 -0.1396 0.14322 0.14474 -0.030744 0.17449 0.0024496 0.068147 0.21266 0.058692 0.0051994 -0.010854 0.11986 0.27567 -0.14804 0.0083634 0.041467 -0.26595 0.24071 0.18309 -0.06535 0.055825 0.024389 -0.029182
zislis 0.20255 -0.0082934 -0.0077436 0.05749 0.047367 0.16422 0.18931 0.039801 -0.043771 -0.008043 0.11835 0.071226 -0.0014885 -0.20909 0.035481 0.016967 0.071448 0.030159 -0.095164 0.074409 0.06967 -0.089617 -0.14547 -0.10862 -0.10813 -0.07182 0.12525 -0.1572 -0.095517 0.1902 -0.021414 0.0053692 -0.19106 -0.26662 0.22335 -0.045236 -0.028511 -0.16422 0.036991 -0.0058574 0.44626 0.050179 -0.37993 0.021764 -0.15662 0.18901 0.23357 0.055599
folate -0.12147 0.28072 -0.088152 0.24097 0.44255 -0.053135 0.10662 0.20986 0.17696 -0.14553 -0.0079794 -0.083496 -0.056787 -0.1435 0.1487 -0.21292 0.040108 -0.089923 -0.19599 -0.10796 0.14343 -0.12101 0.057153 0.061618 -0.023756 -0.24322 0.082742 -0.087164 -0.20618 -0.019581 -0.075086 0.030314 0.20294 0.0047461 0.067318 -0.14737 0.20669 -0.090557 -0.01581 -0.040163 -0.080166 -0.099223 0.023791 0.1035 -0.0045781 0.20964 -0.067584 0.11719
fib -0.18523 -0.19681 0.040233 0.059169 -0.081149 0.044354 0.0088922 0.09326 0.15696 0.11984 0.18392 0.3428 0.035454 0.15207 0.037033 0.108 0.084475 0.0068895 -0.13679 -0.10923 0.021699 -0.17853 0.0030169 0.14972 -0.055966 0.080367 -0.14075 -0.17418 0.22101 0.18021 -0.13078 0.26341 0.22247 -0.17541 0.10796 0.13031 -0.15475 -0.20697 -0.12788 -0.12866 -0.013911 0.12761 0.20587 0.057432 -0.12738 0.11085 -0.12376 0.20502
sozcu 0.16622 -0.1613 -0.11309 -0.060747 0.02578 0.088627 -0.0062052 0.10145 -0.32764 0.20984 0.1779 0.11895 -0.062706 0.0042727 -0.014835 -0.0023935 0.040444 0.03967 -0.13677 -0.059051 0.25876 -0.17179 -0.28149 -0.00082332 -0.1255 -0.037677 -0.02117 0.068804 0.2251 0.34821 -0.11798 0.060964 0.27535 -0.065368 0.25257 0.20658 0.088846 -0.10518 0.065202 0.13808 -0.087731 -0.096057 0.052632 -0.15717 -0.065285 -0.024175 -0.010917 -0.13586
fia 0.1225 -0.080353 0.046837 -0.17028 0.099857 0.10397 0.14179 0.1857 -0.055574 0.064244 -0.052594 0.066843 -0.054063 0.13924 0.12502 -0.055035 0.25308 -0.012791 0.10478 -0.078534 0.0034581 -0.36804 -0.026744 -0.018233 -0.032579 0.16594 0.012493 0.093233 -0.20384 0.1908 0.3457 -0.063189 -0.086717 0.034261 0.13945 0.071649 -0.20141 -0.11567 -0.19395 -0.067059 -0.11624 0.047317 0.17059 0.056208 0.29034 0.28958 -0.11401 0.035779
fig -0.072367 0.16375 -0.096116 0.16557 -0.072952 0.35709 0.062224 0.24383 0.16806 -0.2018 0.16565 0.094375 0.030485 -0.2169 0.065782 -0.063367 -0.30288 -0.11571 0.2843 0.098233 -0.060004 0.090664 -0.063546 -0.16642 -0.039351 0.019053 -0.21413 -0.094317 0.061623 -0.009257 0.054068 0.005653 0.023689 -0.13063 0.13909 0.089138 -0.092852 0.28548 0.2239 0.0051496 0.049407 0.053235 0.23096 0.094422 0.084255 0.058652 -0.070773 -0.050746
fid -0.082669 0.073268 0.036271 -0.33518 -0.0030883 0.0030683 0.06585 0.070858 -0.069893 -0.083451 -0.014372 -0.13014 -0.017124 -0.028232 0.00383 -0.13505 0.066796 -0.063668 0.043725 -0.19911 -0.18009 -0.14164 0.031835 -0.12584 -0.14013 0.0012296 0.040345 0.29378 0.1377 -0.030173 0.22615 0.050004 -0.071459 0.037716 0.18066 0.0029716 0.28038 0.48039 -0.060032 -0.27117 0.11696 -0.067031 -0.13313 -0.063348 0.050396 0.087422 -0.075317 -0.18563
fie 0.15864 -0.33095 -0.12964 0.033186 0.16398 0.082838 0.033116 -0.028954 -0.048895 -0.075861 0.24225 -0.0027227 -0.23185 -0.13013 -0.25232 0.24673 -0.071927 0.0067766 -0.20948 0.040964 0.065968 -0.22791 -0.098212 -0.066508 0.12555 0.15313 -0.00058287 0.026257 0.18479 -0.23227 0.035329 -0.047792 0.039917 0.015705 0.19299 0.15126 -0.14926 -0.25672 -0.081058 0.076659 0.011509 0.21686 -0.072102 -0.032801 -0.042612 -0.076627 -0.25856 -0.079985
fuddruckers -0.071718 0.11355 -0.072223 -0.24468 0.022756 0.074356 0.069123 -0.023774 0.063958 0.0075116 -0.19249 -0.026136 -0.14558 -0.11138 -0.12027 -0.11978 -0.16952 -0.038092 -0.11692 0.20945 -0.0068475 -0.1672 0.13447 -0.097597 0.016745 0.043213 0.043485 0.1042 -0.075831 -0.075253 0.20281 0.010667 0.027455 -0.16502 -0.042441 -0.080084 0.28483 0.25448 0.10358 -0.19394 0.11531 -0.049605 -0.4392 0.086088 -0.046335 -0.22448 -0.25421 -0.16324
